tree
version=v4
num_class=1
num_tree_per_iteration=1
label_index=0
max_feature_idx=128
objective=regression
feature_names=Column_0 Column_1 Column_2 Column_3 Column_4 Column_5 Column_6 Column_7 Column_8 Column_9 Column_10 Column_11 Column_12 Column_13 Column_14 Column_15 Column_16 Column_17 Column_18 Column_19 Column_20 Column_21 Column_22 Column_23 Column_24 Column_25 Column_26 Column_27 Column_28 Column_29 Column_30 Column_31 Column_32 Column_33 Column_34 Column_35 Column_36 Column_37 Column_38 Column_39 Column_40 Column_41 Column_42 Column_43 Column_44 Column_45 Column_46 Column_47 Column_48 Column_49 Column_50 Column_51 Column_52 Column_53 Column_54 Column_55 Column_56 Column_57 Column_58 Column_59 Column_60 Column_61 Column_62 Column_63 Column_64 Column_65 Column_66 Column_67 Column_68 Column_69 Column_70 Column_71 Column_72 Column_73 Column_74 Column_75 Column_76 Column_77 Column_78 Column_79 Column_80 Column_81 Column_82 Column_83 Column_84 Column_85 Column_86 Column_87 Column_88 Column_89 Column_90 Column_91 Column_92 Column_93 Column_94 Column_95 Column_96 Column_97 Column_98 Column_99 Column_100 Column_101 Column_102 Column_103 Column_104 Column_105 Column_106 Column_107 Column_108 Column_109 Column_110 Column_111 Column_112 Column_113 Column_114 Column_115 Column_116 Column_117 Column_118 Column_119 Column_120 Column_121 Column_122 Column_123 Column_124 Column_125 Column_126 Column_127 Column_128
feature_infos=[-1.958707332611084:3.0270473957061768] [-1.9164596796035767:3.0287966728210449] [-1.9369791746139526:3.3059251308441162] [-2.2013280391693115:2.5648477077484131] [-2.1551513671875:2.5860822200775146] [-2.2036294937133789:2.8403353691101074] [-2.2597615718841553:2.7070713043212891] [-2.2781081199645996:2.8393776416778564] [-3.1841104030609131:2.8717043399810791] [-2.256331205368042:2.4981346130371094] [-2.2707624435424805:2.5643284320831299] [-2.2224676609039307:2.4953060150146484] [-2.8059182167053223:2.5727357864379883] [-2.1967654228210449:2.7436730861663818] [-2.1555407047271729:2.7231132984161377] [-2.3930299282073975:3.2448153495788574] [-1.6935014724731445:2.6170444488525391] [-2.218062162399292:3.2156875133514404] [-2.9918110370635986:3.3346798419952393] [-1.8242568969726562:2.9603829383850098] [-2.582791805267334:2.6001458168029785] [-2.2349064350128174:2.5320322513580322] [-2.6772055625915527:3.4568912982940674] [-2.561187744140625:2.338585376739502] [-1.9625011682510376:4.2879700660705566] [-2.2180914878845215:4.2532353401184082] [-2.4860286712646484:2.3409199714660645] [-2.7577524185180664:2.3976733684539795] [-3.8613781929016113:4.1273040771484375] [-1.2110428810119629:4.0873703956604004] [-2.9563910961151123:3.1267158985137939] [-2.0865535736083984:3.2962448596954346] [-2.2833285331726074:2.5883615016937256] [-2.4941811561584473:2.5166900157928467] [-2.4361448287963867:2.7473499774932861] [-2.7414722442626953:2.8053586483001709] [-2.4095957279205322:2.4741289615631104] [-2.3771061897277832:2.4443817138671875] [-2.5031487941741943:2.5592327117919922] [-2.0085690021514893:3.0530128479003906] [-1.9738733768463135:2.6453561782836914] [-2.0277037620544434:3.1182253360748291] [-1.8992711305618286:3.0531961917877197] [-2.2042348384857178:2.6439094543457031] [-2.2043840885162354:2.6098325252532959] [-2.1680717468261719:2.5342082977294922] [-2.1962752342224121:3.3038103580474854] [-2.2496283054351807:2.8164165019989014] [-2.1853382587432861:3.377953052520752] [-2.2171313762664795:2.5494015216827393] [-2.2521753311157227:2.5606122016906738] [-1.9694644212722778:2.6509373188018799] [-2.2379996776580811:2.5350544452667236] [-1.9619232416152954:2.6548197269439697] [-1.9744981527328491:2.6469841003417969] [-1.9695291519165039:2.6537857055664062] [-1.9675911664962769:2.6472337245941162] [-1.9675911664962769:2.6472337245941162] [-1.854823112487793:2.8997592926025391] [-1.9274858236312866:2.87896728515625] [-2.061908483505249:2.8781952857971191] [-2.1464993953704834:2.9094493389129639] [-1.4579774141311646:3.0514113903045654] [-1.7729970216751099:3.2168476581573486] [-3.136422872543335:2.2164254188537598] [-1.7824143171310425:2.9320938587188721] [-2.9701728820800781:1.9920146465301514] [-1.9797449111938477:2.5772795677185059] [-1.9672665596008301:2.7206943035125732] [-1.9431102275848389:2.8508265018463135] [-1.8747916221618652:2.9103713035583496] [-1.8830971717834473:2.8238780498504639] [-2.167168140411377:2.6107473373413086] [-2.649188756942749:3.4596302509307861] [-2.4355480670928955:2.3866870403289795] [-2.7338583469390869:2.1563787460327148] [-2.1598320007324219:2.6527094841003418] [-2.362959623336792:2.4276485443115234] [-2.3054842948913574:2.4380440711975098] [-2.4022648334503174:2.6385743618011475] [-2.5268251895904541:2.4156665802001953] [-2.6016709804534912:2.4331934452056885] [-2.8927879333496094:2.5171875953674316] [-2.6159415245056152:2.8795166015625] [-3.120856761932373:3.443026065826416] [-2.3509757518768311:2.3589372634887695] [-2.4000704288482666:2.4208769798278809] [-2.4646341800689697:2.336268424987793] [-2.3938956260681152:2.3605811595916748] [-2.4562397003173828:2.3869552612304688] [-2.6176793575286865:2.4027080535888672] [-2.7414684295654297:2.4727590084075928] [-2.9286577701568604:2.4664895534515381] [-3.2237439155578613:1.8998457193374634] [-3.312108039855957:1.8706297874450684] [-2.4516298770904541:3.6738932132720947] [-2.7701447010040283:2.7220449447631836] [-3.367318868637085:1.9159626960754395] [-2.8760077953338623:2.8241322040557861] [-2.9097204208374023:2.8197493553161621] [-3.0866563320159912:1.9299517869949341] [-3.2340817451477051:1.8810375928878784] [-3.3764359951019287:1.9694498777389526] [-3.0249679088592529:2.3969159126281738] [-3.1633844375610352:2.3969159126281738] [-3.1355862617492676:2.5889008045196533] [-2.3095555305480957:2.8531467914581299] [-2.7050535678863525:3.0834205150604248] [-2.6781599521636963:3.2435016632080078] [-2.7200100421905518:3.0775041580200195] [-4.2927689552307129:3.2593624591827393] [-1.6342103481292725:2.8605093955993652] [-1.7103171348571777:2.7858867645263672] [-1.7278923988342285:2.7110011577606201] [-1.7365990877151489:2.705019474029541] [-1.5859075784683228:3.0469346046447754] [-2.4761056900024414:3.2742013931274414] [-2.0143506526947021:2.4701852798461914] [-2.374478816986084:3.5740120410919189] [-2.3431510925292969:3.5276651382446289] [-2.4110383987426758:3.5625650882720947] [-3.5487642288208008:2.688673734664917] [-2.6669085025787354:2.8530604839324951] [-2.0845561027526855:3.5029928684234619] [-2.2850689888000488:2.8219223022460938] [-1.5949641466140747:3.4366095066070557] [-1.7207424640655518:3.1140599250793457] [-2.7480545043945312:2.7858748435974121] [-2.34336256980896:2.7971398830413818]
tree_sizes=3222 3230 3230 3207 3241 3220 3207 3224 3191 3200 3199 3223 3246 3222 3222 3215 3212 3244 3225 3253 3208 3245 3236 3262 3236 3215 3246 3251 3246 3229 3170 3236 3260 3224 3176 3268 3247 3230 3244 3220 3221 3225 3198 3229 3220 3186 3214 3245 3163 3150 3206 3189 3211 3211 3164 3192 3196 3193 3166 3192 3107 3214 3191 3177 3223 3297 3155 3116 3121 3215 2952 3121 3166 3058 3064 3125 3180 3158 3057 3171 3200 3188 3039 3173 3060 2973 3119 3238 3033 3095 3121 3134 2957 3086 3192 3074 3144 3230 3040 3131 3089 3038 3124 3205 3155 3011 3168 3088 3080 3078 3133 3101 3063 3169 3179 2978 3125 2978 2981 3126 2950 3050 2896 2992 3030 2995 3087 3141 3006 2965 3136 3037 3124 3182 3096 2999 3138 3137 2939 2909 3006 2976 3028 3034 3083 3171 3039 3087 3073 2907 2967 2994 3048 3041 3056 3144 2941 2938 2978 3028 3136 3024 2990 3043 2869 3086 2932 3030 3045 3027 2933 3049 2978 3021 3011 2938 3029 3123 3011 2971 3182 3128 2874 2910 2986 3041 3177 2917 2894 2918 2886 3179 2954 3072 3112 2950 2884 2985 2963 3196 3006 3018 3019 2984 3057 3007 2863 2905 3051 3037 2889 2872 2989 2921 2949 3089 2952 2977 3031 3035 2928 2978 3126 3041 2926 2902 3047 2988 2888 2929 3078 2869 3085 2892 2935 2918 3020 2926 2930 2842 2887 2923 2905 3049 2938 2895 2946 2984 2886 3065 2912 3005 2956 3019 3025 3038 2987 2882 3037 3008 3111 3030 2907 3016 2950 3020 2928 2967 2996 2845 2895 2879 2920 2887 2990 3245 2957 2942 3124 2934 2960 2892 3059 3020 3030 2935 3005 2874 2956 3102 2981 2993 2980 3065 2896 2884 2989 2985 2971 2902 2868 3042 2852 2928 2974 2887 2860 2830 3005 2907 3022 2881 2981 3117 2897 3066 2896 3012 2952 2991 3035 2967 2905 3068 2921 3107 3084 2962 3110 2933 2877 2905 2941 2924 2930 2892 2880 2954 2946 2875 2933 3021 2926 2913 2863 3020 2913 2838 2922 2968

Tree=0
num_leaves=31
num_cat=0
split_feature=121 70 97 121 106 63 14 65 87 31 65 63 121 99 62 71 10 62 72 121 48 77 70 121 62 104 88 117 64 125
split_gain=9301.44 4532.33 3895.29 2468.91 1516.76 1450.57 985.452 951.272 937.473 871.231 763.756 695.476 678.622 461.927 452.56 417.406 413.572 406.23 405.514 378.812 347.411 320.689 301.09 264.58 263.101 259.115 271.776 254.865 242.119 239.953
threshold=0.69986772537231456 2.228589773178101 -2.2863571643829341 -0.3941181600093841 1.8856002092361452 1.7375791072845461 1.8736490011215212 2.3320511579513554 1.6151092052459719 2.1588855981826787 2.3320511579513554 2.168048739433289 -1.6822472214698789 -1.665183901786804 2.8058522939682011 -0.2704236358404159 -0.22474580258131024 2.8058522939682011 1.7249704003334048 0.24559661000967029 0.072266038507223143 -1.3200873136520384 0.49588601291179663 1.1772792935371401 1.5584641695022585 -2.1255389451980586 1.3876579999923708 0.57273742556571972 -0.86361801624298085 -0.72233071923255909
decision_type=2 2 2 2 2 2 2 2 2 2 2 2 2 2 2 2 2 2 2 2 2 2 2 2 2 2 2 2 2 2
left_child=1 3 6 7 25 18 15 12 9 16 27 19 20 -11 28 -2 29 -9 23 -5 -1 -14 -23 -4 -17 26 -3 -7 -8 -6
right_child=2 4 5 11 8 10 14 17 -10 13 -12 -13 21 -15 -16 24 -18 -19 -20 -21 -22 22 -24 -25 -26 -27 -28 -29 -30 -31
leaf_value=0.0068505452821976398 -0.0079812609603391975 -0.0099649377582875596 -0.001845023552274507 0.0014102814111286483 0.0073061294353600039 -0.0069383074929032151 -0.04163438581224161 -0.0023390703178854072 -0.049868823955806448 -0.063613724981906289 -0.025633937531605935 -0.014586302687384697 0.0012788929423080421 -0.024417197302924316 -0.056937015305802877 -0.014564740188524839 -0.02093469742240631 -0.021414942395511696 -0.010937332800943883 -0.00069856050147012452 0.013633196144125594 0.0051933774655898868 0.002074373306529282 -0.0045235659545558972 -0.026575184297232584 -0.0042665763582689321 -0.034027249290723018 -0.013364741973652523 -0.024118448635659127 -0.01193088078917263
leaf_weight=131763 20020 14109 375734 1182876 5379 80624 5470 52235 5297 2760 15844 14767 161477 3160 3424 17769 15510 6110 34165 644954 51453 845529 184803 348117 17981 73632 2748 48387 13194 7762
leaf_count=131763 20020 14109 375734 1182876 5379 80624 5470 52235 5297 2760 15844 14767 161477 3160 3424 17769 15510 6110 34165 644954 51453 845529 184803 348117 17981 73632 2748 48387 13194 7762
internal_value=1.89689e-11 0.00172949 -0.00600697 0.00223884 -0.0110708 -0.00471148 -0.0210299 0.00441763 -0.0224464 -0.0182447 -0.0111299 0.000543935 0.0047891 -0.0426913 -0.0335436 -0.0160738 -0.0131934 -0.00433673 -0.00348494 0.000666172 0.00875533 0.00417937 0.00463394 -0.0031332 -0.0206056 -0.00605884 -0.0138875 -0.00934861 -0.029252 -0.0040566
internal_weight=4.38705e+06 3.40632e+06 980729 3.27597e+06 130357 902871 77858 1.43337e+06 39868 34571 144855 1.8426e+06 1.37502e+06 5920 22088 55770 28651 58345 758016 1.82783e+06 183216 1.19181e+06 1.03033e+06 723851 35750 90489 16857 129011 18664 13141
internal_count=4387053 3406324 980729 3275967 130357 902871 77858 1433370 39868 34571 144855 1842597 1375025 5920 22088 55770 28651 58345 758016 1827830 183216 1191809 1030332 723851 35750 90489 16857 129011 18664 13141
is_linear=0
shrinkage=1


Tree=1
num_leaves=31
num_cat=0
split_feature=121 70 62 121 62 63 65 31 65 87 63 121 63 65 121 104 87 62 48 32 103 21 103 117 126 63 69 77 70 32
split_gain=8049.13 3932.99 3545.87 2053.28 1296.01 1230.69 1203.76 1063.94 922.58 735.245 680.16 502.408 491.415 417.781 389.61 380.249 361.455 341.263 315.519 312.411 295.412 293.483 284.745 283.104 272.618 270.408 262.745 243.25 239.056 237.477
threshold=0.66978508234024059 2.3469392061233525 2.1550525426864628 -0.50344398617744435 2.4494342803955083 1.7375791072845461 2.179673552513123 2.1588855981826787 2.3320511579513554 1.2703390717506411 2.168048739433289 -1.6489304304122923 2.0168279409408574 1.492180407047272 0.10654680058360101 -1.8382755517959593 1.7245165109634402 2.8763018846511845 -0.078670680522918687 -0.32335907220840449 0.35608349740505224 -0.64020228385925282 -2.1036731004714961 1.6809225678443911 -0.74280437827110279 2.0920957326889043 0.67564097046852123 -1.105135917663574 0.49588601291179663 -0.21390309184789655
decision_type=2 2 2 2 2 2 2 2 2 2 2 2 2 2 2 2 2 2 2 2 2 2 2 2 2 2 2 2 2 2
left_child=1 3 5 8 20 22 15 9 11 21 14 18 -8 24 28 25 -14 -10 -1 -9 -3 23 -2 -6 -7 -4 27 -13 -5 -11
right_child=2 4 6 10 7 13 12 19 17 29 -12 26 16 -15 -16 -17 -18 -19 -20 -21 -22 -23 -24 -25 -26 -27 -28 -29 -30 -31
leaf_value=0.0058813579189423513 -0.0094685325722976155 -0.010870880973652715 -0.015457335352132862 0.0021122492410666329 -0.0054124516335797429 -0.012396408727036181 -0.019676175779802036 -0.041382454204097155 -0.0032439939324269878 -0.016952659476915148 -0.013618903064195925 0.002189931809625715 -0.036097825054335592 -0.016879433218183797 -0.00031659589759465792 -0.0099720899763232566 -0.076937424633855153 -0.031753663000001833 0.011716492557048694 -0.078469107200542898 -0.0021833846715872667 -0.017705840010448264 -0.002756193115961314 0.03142005018519347 -0.0053445019714906264 -0.032415024278181277 0.0015822398711440558 0.0051851211202759342 -0.00064531560360878756 -0.04437155033498881
leaf_weight=130705 32313 43528 12887 939227 5068 42991 10803 3216 56539 2193 16160 166150 14472 33475 864781 46030 1146 2135 69578 1702 34287 8846 743616 1281 71599 7172 172481 663146 184265 5261
leaf_count=130705 32313 43528 12887 939227 5068 42991 10803 3216 56539 2193 16160 166150 14472 33475 864781 46030 1146 2135 69578 1702 34287 8846 743616 1281 71599 7172 172481 663146 184265 5261
internal_value=7.4142e-11 0.00164661 -0.00545986 0.00207618 -0.0116634 -0.00415169 -0.0185259 -0.0247057 0.00428955 -0.0182976 0.000684036 0.00470791 -0.0311548 -0.00999989 0.000800286 -0.0134772 -0.0390945 -0.00428139 0.00790847 -0.0542172 -0.00704298 -0.00946411 -0.00303572 0.00201902 -0.00799018 -0.0215205 0.00406803 0.00458503 0.00165998 -0.0363048
internal_weight=4.38705e+06 3.37055e+06 1.0165e+06 3.26517e+06 105382 923994 92510 27567 1.26073e+06 22649 2.00443e+06 1.20206e+06 26421 148065 1.98827e+06 66089 15618 58674 200283 4918 77815 15195 775929 6349 114590 20059 1.00178e+06 829296 1.12349e+06 7454
internal_count=4387053 3370549 1016504 3265167 105382 923994 92510 27567 1260734 22649 2004433 1202060 26421 148065 1988273 66089 15618 58674 200283 4918 77815 15195 775929 6349 114590 20059 1001777 829296 1123492 7454
is_linear=0
shrinkage=0.07


Tree=2
num_leaves=31
num_cat=0
split_feature=121 70 93 121 61 65 65 71 31 63 121 87 16 92 75 71 32 62 66 94 62 121 48 63 10 95 93 83 62 64
split_gain=7022.91 3563 2759.6 2210.87 1306.47 1050.52 728.156 722.809 705.765 640.87 606.069 503.118 494.458 453.407 379.181 378.612 367.504 371.313 357.998 341.844 338.048 328.958 312.368 309.879 282.852 278.639 265.182 254.234 245.935 240.334
threshold=0.88717254996299755 2.228589773178101 -2.441586852073669 -0.31759256124496454 1.6567337512969973 1.790725886821747 2.3320511579513554 -0.062868312001228319 2.1588855981826787 2.0168279409408574 -1.3235976099967954 1.6151092052459719 -0.64906358718872059 -0.031783515587449067 1.3783962130546572 1.0000000180025095e-35 -0.094130672514438615 2.5790296792984013 -1.9991024136543272 -2.9089759588241573 2.8058522939682011 0.28374442458152777 -0.09726426005363463 1.9401084780693056 -0.22474580258131024 0.44446663558483129 -1.4076011776924131 -0.751316338777542 0.70785844326019298 -0.48696282505989069
decision_type=2 2 2 2 2 2 2 2 2 2 2 2 2 2 2 2 2 2 2 2 2 2 2 2 2 2 2 2 2 2
left_child=1 3 7 6 14 12 10 25 11 21 22 24 15 -9 -3 -4 -16 -18 29 -10 -8 -5 26 -7 -6 -2 -1 -12 -17 -15
right_child=2 4 5 9 8 23 20 13 19 -11 27 -13 -14 18 16 28 17 -19 -20 -21 -22 -23 -24 -25 -26 -27 -28 -29 -30 -31
leaf_value=5.3960869082084264e-05 -0.0050613053214498081 -0.0030587128677291957 -0.0045423155237746034 0.0010375173820436037 -0.0051139766672008242 -0.0091023771066461919 -0.0020528804690915789 -0.01740931361719911 -0.0673436762695626 -0.012360668343141659 0.0018491974156413158 -0.042847216937667271 -0.0027238433381468704 -0.060106368591947713 -0.0048723242899966464 -0.0075710516230369741 -0.013468431722413861 -0.03707172231738505 -0.02757071917872719 -0.031497487357790448 -0.019216011078247136 -0.00084948255277496505 0.0092741291708227161 -0.019141730358057676 -0.021477858085070339 -0.019677840733247756 0.0061307203646178568 0.0040045931775356874 -0.015473468510569145 -0.034426988773446437
leaf_weight=43655 12441 68785 139538 1111502 10014 33060 54508 10919 2136 19896 423298 3340 447797 3684 19298 51612 15301 4152 11091 3345 6270 763725 128844 27678 10713 13141 181428 731595 30821 3466
leaf_count=43655 12441 68785 139538 1111502 10014 33060 54508 10919 2136 19896 423298 3340 447797 3684 19298 51612 15301 4152 11091 3345 6270 763725 128844 27678 10713 13141 181428 731595 30821 3466
internal_value=6.9293e-11 0.00130772 -0.00599828 0.00174565 -0.00976073 -0.00486231 0.00368864 -0.0211572 -0.0227974 0.000136405 0.00399124 -0.0176347 -0.00406293 -0.0286912 -0.0061786 -0.00676435 -0.0117166 -0.0185063 -0.0354445 -0.0454671 -0.00382347 0.000268998 0.00652551 -0.0136773 -0.0135718 -0.0125695 0.00495213 0.00321459 -0.0105257 -0.0476582
internal_weight=4.38705e+06 3.6018e+06 785248 3.46472e+06 137084 730506 1.5696e+06 54742 29548 1.89512e+06 1.50882e+06 24067 669768 29160 107536 221971 38751 19453 18241 5481 60778 1.87523e+06 353927 60738 20727 25582 225083 1.15489e+06 82433 7150
internal_count=4387053 3601805 785248 3464721 137084 730506 1569598 54742 29548 1895123 1508820 24067 669768 29160 107536 221971 38751 19453 18241 5481 60778 1875227 353927 60738 20727 25582 225083 1154893 82433 7150
is_linear=0
shrinkage=0.07


Tree=3
num_leaves=31
num_cat=0
split_feature=121 65 62 121 70 14 69 115 121 62 62 31 70 39 104 64 65 87 82 75 48 115 32 71 31 91 21 82 115 63
split_gain=6075.8 3184.58 2418.07 1964.21 1146.81 1007.12 691.687 635.678 604.411 538.41 528.872 396.114 387.837 368.176 340.96 332.588 329.114 313.356 271.474 268.027 267.878 255.931 254.537 251.881 246.119 241.853 234.565 216.857 213.534 226.573
threshold=0.9053606688976289 2.2561781406402592 1.7516584396362307 -0.26494589447975153 2.4431934356689458 1.7405014634132387 1.6649723052978518 0.99855181574821483 -1.1266966462135313 2.8058522939682011 2.4494342803955083 2.2032727003097539 1.2774352431297304 1.4553821086883547 -2.7137376070022579 -0.51143223047256459 2.2561781406402592 1.2944648861885073 0.41111843287944799 1.5109615325927737 -0.09726426005363463 2.1823494434356694 -0.11363115534186362 0.61004728078842174 1.9183014631271365 1.0521887540817263 -0.60997840762138356 0.51571193337440502 1.9737448096275332 2.7046037912368779
decision_type=2 2 2 2 2 2 2 2 2 2 2 2 2 2 2 2 2 2 2 2 2 2 2 2 2 2 2 2 2 2
left_child=1 3 7 6 9 14 8 -2 20 21 -6 17 18 -7 -4 24 -9 -12 -5 -8 -1 -3 -21 -16 -15 -26 -23 -10 -11 -30
right_child=2 4 5 12 10 13 19 16 27 28 11 -13 -14 15 23 -17 -18 -19 -20 22 -22 26 -24 -25 25 -27 -28 -29 29 -31
leaf_value=0.0045949819072715996 -0.0025937486996941016 -0.0026598318449903998 -0.021881648111935763 -0.00032911053744476423 -0.013811558939378878 -0.019004873094399532 -0.0005155537187620492 -0.0063228715182754008 0.0021982170718053739 -0.010041422796173554 -0.016577567310264146 -0.058218934464370972 -0.0037756635278880361 -0.040281564537924384 -0.0059097722705466179 -0.025112283744784365 -0.015571436023930079 -0.045354960951489456 0.0015328011319807021 -0.0017620109209703614 0.0081087406881556433 -0.0029012474204328622 -0.018713572191520367 -0.015594300168967122 -0.053680588382794853 -0.12520312261296673 -0.01617485951141575 0.0043318692610866492 -0.025168207126848124 -0.071545048354324292
leaf_weight=287079 447289 86880 11982 1105212 15730 16543 90193 195750 751461 5051 5373 2524 121587 5166 41718 8292 20863 2831 587782 8920 168840 11394 8454 19223 693 348 15261 338577 5467 570
leaf_count=287079 447289 86880 11982 1105212 15730 16543 90193 195750 751461 5051 5373 2524 121587 5166 41718 8292 20863 2831 587782 8920 168840 11394 8454 19223 693 348 15261 338577 5467 570
internal_value=5.64658e-11 0.00119992 -0.00565556 0.0016333 -0.00874864 -0.0155821 0.00337844 -0.00410109 0.00375609 -0.00593857 -0.0219847 -0.0339687 4.30647e-05 -0.0261418 -0.011087 -0.0342849 -0.00721364 -0.0265079 0.000317317 -0.00204915 0.00589623 -0.0045007 -0.0100105 -0.00896462 -0.0465387 -0.0775901 -0.0105009 0.00286095 -0.0206615 -0.029547
internal_weight=4.38705e+06 3.61919e+06 767867 3.4681e+06 151081 103965 1.65352e+06 663902 1.54596e+06 124623 26458 10728 1.81458e+06 31042 72923 14499 216613 8204 1.69299e+06 107567 455919 113535 17374 60941 6207 1041 26655 1.09004e+06 11088 6037
internal_count=4387053 3619186 767867 3468105 151081 103965 1653524 663902 1545957 124623 26458 10728 1814581 31042 72923 14499 216613 8204 1692994 107567 455919 113535 17374 60941 6207 1041 26655 1090038 11088 6037
is_linear=0
shrinkage=0.07


Tree=4
num_leaves=31
num_cat=0
split_feature=121 65 121 93 70 31 71 65 87 115 121 99 124 19 121 21 71 104 69 48 64 43 77 82 53 83 29 78 37 63
split_gain=5325.74 2950.79 1995.14 1863.81 1441.16 646.796 614.955 599.373 564.502 546.021 505.257 442.117 381.011 377.435 347.472 312.73 308.335 307.723 294.523 276.308 264.632 249.624 228.595 208.207 207.962 194.469 193.82 192.468 185.592 185.154
threshold=1.1772792935371401 1.7231131196022036 -0.26494589447975153 -1.9017275571823118 2.3469392061233525 2.1588855981826787 -0.062868312001228319 2.179673552513123 1.6151092052459719 2.1420105695724492 -1.3235976099967954 -2.2464054822921748 1.9065603613853457 -0.15751452744007108 0.29399110376834875 -0.57182022929191578 0.35056103765964514 -2.3533409833908077 0.75865373015403759 -0.14477995783090589 -0.47546985745429987 1.3687822818756106 -1.3200873136520384 -0.2428440377116203 1.6072685122489931 -0.046598020941019051 1.3236637115478518 -0.66260528564453114 -0.99267327785491932 1.2617183923721316
decision_type=2 2 2 2 2 2 2 2 2 2 2 2 2 2 2 2 2 2 2 2 2 2 2 2 2 2 2 2 2 2
left_child=1 2 10 6 9 8 26 13 15 27 19 28 -8 16 -4 24 -5 20 22 21 -11 -1 -12 -14 -6 -16 -2 -3 -7 -21
right_child=3 4 14 7 5 11 12 -9 -10 17 18 -13 23 -15 25 -17 -18 -19 -20 29 -22 -23 -24 -25 -26 -27 -28 -29 -30 -31
leaf_value=0.0049131336238307979 -0.0096404581424250728 -0.0070432792189149282 0.00085602728764351446 -0.004365348417535074 -0.0059576518583310794 -0.099701912180652191 -0.017768736211694426 -0.014284650503340128 -0.035553603165419598 -0.025132670467624976 0.00053634445249421008 -0.025107503598917929 -0.018284261505746323 -0.0021777900881586282 -0.0024053823686610788 -0.015180803898195863 -0.0095322919441842031 -0.0056845687537603511 0.00010616498709733271 0.0063561214970078352 -0.0084252138895687858 -0.0028566036490243548 0.0034990070153381337 -0.037567992302332716 0.017283897869936081 -0.00029049089655223606 -0.087636273541980114 -0.00054969872312817924 -0.051193142592916775 0.011945559182115983
leaf_weight=190560 27792 27170 1021305 161264 10794 506 19908 31576 5067 9927 148310 5440 3674 215996 320961 25824 87188 27698 191935 90459 8731 22672 914491 10833 2286 633631 157 126492 1636 42770
leaf_count=190560 27792 27170 1021305 161264 10794 506 19908 31576 5067 9927 148310 5440 3674 215996 320961 25824 87188 27698 191935 90459 8731 22672 914491 10833 2286 633631 157 126492 1636 42770
internal_value=-3.29174e-12 0.000931421 0.00144678 -0.00638642 -0.00639646 -0.0168324 -0.0177919 -0.00495242 -0.0135766 -0.00370668 0.00328323 -0.0357143 -0.0240561 -0.00431796 -4.14156e-05 -0.0107142 -0.00617856 -0.0103655 0.00262982 0.00564959 -0.0173144 0.00408701 0.00308558 -0.0326843 -0.00189571 -0.00100158 -0.0100786 -0.00169787 -0.0626523 0.00815048
internal_weight=4.38705e+06 3.82866e+06 3.57709e+06 558388 251571 51553 62364 496024 43971 200018 1.6012e+06 7582 34415 464448 1.9759e+06 38904 248452 46356 1.25474e+06 346461 18658 213232 1.0628e+06 14507 13080 954592 27949 153662 2142 133229
internal_count=4387053 3828665 3577094 558388 251571 51553 62364 496024 43971 200018 1601197 7582 34415 464448 1975897 38904 248452 46356 1254736 346461 18658 213232 1062801 14507 13080 954592 27949 153662 2142 133229
is_linear=0
shrinkage=0.07


Tree=5
num_leaves=31
num_cat=0
split_feature=121 70 97 121 62 114 14 31 104 64 65 70 87 121 62 71 32 82 115 71 21 82 53 40 63 43 19 9 115 48
split_gain=4641.95 2362.73 2247.74 1228.85 840.943 803.705 675.992 640.321 556.026 581.354 513.384 504.99 479.623 389.572 352.583 301.674 298.011 284.012 257.567 240.538 240.121 239.142 233.726 230.859 222.128 217.111 212.876 198.163 198.097 193.317
threshold=0.66978508234024059 2.3469392061233525 -2.0821329355239864 -0.52498847246170033 2.5275282859802251 0.96318325400352489 1.7405014634132387 2.2477015256881718 -2.3533409833908077 -0.26493586599826807 2.0218183994293217 2.228589773178101 1.2703390717506411 -1.8472000360488889 2.7589811086654668 -0.2704236358404159 -0.25339674949645991 0.22826652973890307 2.1823494434356694 0.50343933701515209 -0.36304944753646845 0.37672869861125952 0.68710520863533031 2.1903874874114995 2.0168279409408574 0.010656840633600952 -0.76032233238220204 1.1416112780570986 0.55496671795845043 0.34032714366912847
decision_type=2 2 2 2 2 2 2 2 2 2 2 2 2 2 2 2 2 2 2 2 2 2 2 2 2 2 2 2 2 2
left_child=1 3 6 8 20 28 15 12 9 18 17 19 22 29 -8 -2 23 -5 -1 -7 -3 -15 -6 -9 -12 -22 -21 -18 -4 -10
right_child=2 4 5 10 7 11 14 16 13 -11 24 -13 -14 21 -16 -17 27 -19 -20 26 25 -23 -24 -25 -26 -27 -28 -29 -30 -31
leaf_value=-0.0054889711087027643 -0.0044635198969854486 -0.0011062131550063723 -0.0013574665662571873 1.9958993554999156e-05 -0.01495189707516666 -0.0042859190041323004 -0.019564196807116699 -0.041062809826647818 0.0065014568290421701 0.0025290589142007722 -0.004374366704655434 -0.019047187134439678 -0.030273918544256793 0.0025654243714402945 -0.038366287574695408 -0.014544072319237046 -0.037930229580823635 0.0017241064542870522 -0.019205283600665542 -0.017117787963671294 -0.0034924991250349226 0.0047666745995861119 0.0032743891482048901 0.016278802805455097 -0.017498604390512353 -0.013252484336014629 -0.0072767905800932529 -0.095140266931670978 -0.0038449179204387038 0.014498033458423595
leaf_weight=25161 22993 34459 520306 1171585 9133 112264 19639 2386 73780 53471 48890 16296 7063 667142 6506 39600 474 810861 9147 14810 20285 379338 5538 402 7257 24849 39491 793 224599 18535
leaf_count=25161 22993 34459 520306 1171585 9133 112264 19639 2386 73780 53471 48890 16296 7063 667142 6506 39600 474 810861 9147 14810 20285 379338 5538 402 7257 24849 39491 793 224599 18535
internal_value=-4.39575e-11 0.00125045 -0.00414627 0.0015834 -0.00906587 -0.00312826 -0.0147897 -0.0200513 0.00333411 -0.00203406 0.000530044 -0.00728657 -0.015287 0.00374789 -0.024243 -0.0108411 -0.0455874 0.00071699 -0.00914593 -0.00613596 -0.00550646 0.00336335 -0.00807185 -0.0327948 -0.00607067 -0.00886596 -0.00996081 -0.0737373 -0.00210747 0.00810701
internal_weight=4.38705e+06 3.37055e+06 1.0165e+06 3.26517e+06 105382 927766 88738 25789 1.22657e+06 87779 2.03859e+06 182861 21734 1.1388e+06 26145 62593 4055 1.98245e+06 34308 166565 79593 1.04648e+06 14671 2788 56147 45134 54301 1267 744905 92315
internal_count=4387053 3370549 1016504 3265167 105382 927766 88738 25789 1226574 87779 2038593 182861 21734 1138795 26145 62593 4055 1982446 34308 166565 79593 1046480 14671 2788 56147 45134 54301 1267 744905 92315
is_linear=0
shrinkage=0.07


Tree=6
num_leaves=31
num_cat=0
split_feature=65 121 115 63 121 62 70 70 94 121 87 69 48 63 123 69 87 77 87 66 104 120 32 31 36 124 99 62 71 39
split_gain=4148.02 3149.94 1582.35 969.929 834.023 817.342 654.066 617.113 446.516 361.216 322.515 312.959 306.81 304.206 409.468 300.529 273.41 253.021 242.539 232.257 227.347 224.719 224.701 224.588 216.307 215.838 207.658 202.227 230.512 201.166
threshold=1.7231131196022036 0.28374442458152777 1.9145030379295351 1.2617183923721316 -0.95302662253379811 2.8058522939682011 1.5385410189628603 2.3838181495666508 -0.81541952490806568 -0.2816172838211059 1.7505350708961489 1.2010303139686587 0.09495007619261743 2.7046037912368779 2.1048687696456914 2.0561347007751469 1.2944648861885073 -1.3200873136520384 1.8161436319351199 -2.4995100498199458 -1.928428530693054 0.75998735427856456 -0.23326665908098218 2.3114889860153203 -0.27206201851367945 2.4646680355072026 -1.7297244071960447 1.4545251727104189 0.40398338437080389 1.5081983208656313
decision_type=2 2 2 2 2 2 2 2 2 2 2 2 2 2 2 2 2 2 2 2 2 2 2 2 2 2 2 2 2 2
left_child=1 4 6 20 12 7 -2 9 21 22 23 17 15 14 18 -1 -9 -6 -7 -15 -3 -5 -4 -8 -19 -16 -25 -11 -29 -24
right_child=2 3 5 8 11 13 10 16 -10 27 -12 -13 -14 19 25 -17 -18 24 -20 -21 -22 -23 29 26 -26 -27 -28 28 -30 -31
leaf_value=0.0037167447024426137 -0.0011809027372972063 -0.0058257068916126101 0.0023881470875918411 -0.0068197341228544463 -0.00049065828754950964 -0.030782369930745949 -0.0070158153638252008 -0.01949354316385692 -0.0045213488228973992 -0.0080111064188730114 -0.027439456136291517 -0.0015669679468601164 0.0067105149409256827 -0.089794393451093496 -0.014695338862612668 -0.0047851329383764452 -0.041034153835830763 0.0028823116135722453 -0.078121565402588189 -0.029584289418776187 -0.0010336801274220837 -0.016083570867521352 -0.0028435900018414974 -0.042392446248310824 0.0012326815150470528 0.031252351099675578 -0.012754504678485237 -0.011409641850941413 -0.024448100836838869 -0.021228426619073558
leaf_weight=413013 135336 50585 15889 23247 239502 9407 69580 15081 171487 21539 4473 163494 183581 708 1743 21430 3571 689486 562 564 1183671 28636 7221 1661 895155 703 3828 15211 11797 4892
leaf_count=413013 135336 50585 15889 23247 239502 9407 69580 15081 171487 21539 4473 163494 183581 708 1743 21430 3571 689486 562 564 1183671 28636 7221 1661 895155 703 3828 15211 11797 4892
internal_value=1.78705e-11 0.000607587 -0.00762527 -0.00199824 0.00206531 -0.0144997 -0.00414167 -0.0122002 -0.00624283 -0.00941822 -0.00917924 0.00136698 0.00431123 -0.0304945 -0.0271541 0.00329737 -0.0236176 0.00162994 -0.0334511 -0.0630975 -0.00123008 -0.0119328 -0.00308684 -0.0080912 0.00195044 -0.0014896 -0.0217231 -0.0130702 -0.0171048 -0.0102686
internal_weight=4.38705e+06 4.06329e+06 323766 1.45763e+06 2.60566e+06 108888 214878 95201 223370 76549 79542 1.98764e+06 618024 13687 12415 434443 18652 1.82414e+06 9969 1272 1.23426e+06 51883 28002 75069 1.58464e+06 2446 5489 48547 27008 12113
internal_count=4387053 4063287 323766 1457626 2605661 108888 214878 95201 223370 76549 79542 1987637 618024 13687 12415 434443 18652 1824143 9969 1272 1234256 51883 28002 75069 1584641 2446 5489 48547 27008 12113
is_linear=0
shrinkage=0.07


Tree=7
num_leaves=31
num_cat=0
split_feature=121 70 121 122 61 31 62 97 10 103 121 64 103 71 104 88 94 87 71 77 95 40 32 77 101 95 73 40 36 48
split_gain=3646.07 2088.17 1390.78 1364.29 1024.26 621.571 490.611 471.187 458.434 396.705 460.847 422.622 376.474 344.256 325.975 342.334 288.033 284.179 282.505 260.866 251.294 243.412 233.587 228.7 213.464 199.633 192.637 187.131 183.809 172.581
threshold=1.1772792935371401 1.6985258460044863 -0.19230518490076062 1.5757024288177492 1.6567337512969973 2.1588855981826787 2.8058522939682011 -2.2863571643829341 -0.22474580258131024 -2.2629672288894649 -1.6822472214698789 -0.36911237239837641 -0.88939252495765675 0.43198470771312719 -2.2391679286956783 1.3876579999923708 -2.3508620262145992 1.0813934206962588 0.4458948820829392 -1.105135917663574 0.2249153479933739 1.9222776889801028 -0.31301701068878168 -1.0425304174423216 -2.3626239299774165 0.041896786540746696 -1.8005982041358946 2.1903874874114995 -0.3634690642356872 0.12400794401764871
decision_type=2 2 2 2 2 2 2 2 2 2 2 2 2 2 2 2 2 2 2 2 2 2 2 2 2 2 2 2 2 2
left_child=1 2 9 12 14 8 13 20 21 11 -11 -1 18 -5 15 -3 22 -10 -2 -12 -4 -6 27 -9 -15 -25 -13 -7 -21 -29
right_child=3 4 7 6 5 16 -8 23 17 10 19 26 -14 24 -16 -17 -18 -19 -20 28 -22 -23 -24 25 -26 -27 -28 29 -30 -31
leaf_value=-0.0085294786075891908 -0.0047084158079240381 -0.0065555158447380378 -0.0015672544621358 -0.0081516741115949445 -0.0073229856059472444 -0.046736528328005539 -0.030659183849341787 -0.0016978456089076044 -0.01346235533584254 0.0063783470255959641 0.00059022054070562591 0.011280518421797139 -0.0029890183914789543 -0.027214067279860345 -0.0019685039332974896 -0.025935360406729838 -0.020151711289859601 -0.032050575159114546 -0.012892938589940334 0.0039965904671842778 -0.01175617959220924 0.013622041415276828 -0.074380810554386584 0.0012317309542210656 -0.013918790384321042 -0.00039596083292484872 -3.5773179562721345e-05 -0.044867663545430536 0.0022254404983989458 0.032062988844841274
leaf_weight=30703 49523 32732 22160 42762 14448 1857 7715 310276 13675 164292 290603 8426 396006 8783 157321 5172 3675 5714 35463 475756 25521 3349 1130 716149 18136 762160 58872 252 724092 330
leaf_count=30703 49523 32732 22160 42762 14448 1857 7715 310276 13675 164292 290603 8426 396006 8783 157321 5172 3675 5714 35463 475756 25521 3349 1130 716149 18136 762160 58872 252 724092 330
internal_value=4.28173e-11 0.00077067 0.00119311 -0.0052842 -0.00555565 -0.0151483 -0.0139099 -0.00015316 -0.011494 0.00260353 0.00285981 -0.00172383 -0.00389625 -0.0120554 -0.00337252 -0.0091999 -0.0339072 -0.0189404 -0.00812366 0.00247197 -0.00702082 -0.0033816 -0.0480711 2.99212e-05 -0.0182567 0.000392555 0.00138108 -0.0358818 0.00292773 -0.00124719
internal_weight=4.38705e+06 3.82866e+06 3.58901e+06 558388 239655 44430 77396 1.83627e+06 37186 1.75274e+06 1.65474e+06 98001 480992 69681 195225 37904 7244 19389 84986 1.49045e+06 47681 17797 3569 1.78858e+06 26919 1.47831e+06 67298 2439 1.19985e+06 582
internal_count=4387053 3828665 3589010 558388 239655 44430 77396 1836266 37186 1752744 1654743 98001 480992 69681 195225 37904 7244 19389 84986 1490451 47681 17797 3569 1788585 26919 1478309 67298 2439 1199848 582
is_linear=0
shrinkage=0.07


Tree=8
num_leaves=31
num_cat=0
split_feature=65 121 115 63 121 62 70 32 103 39 70 69 75 63 123 121 104 36 25 82 63 109 53 66 63 47 87 39 112 19
split_gain=3295.05 2592.18 1109.62 862.642 688.204 580.835 444.532 420.118 373.156 346.847 288.803 283.302 280.874 280.291 313.158 279.772 263.192 247.213 238.779 221.575 210.122 204.308 197.06 192.644 186.776 185.814 184.281 179.783 176.134 163.528
threshold=2.179673552513123 0.36531984806060797 1.9145030379295351 1.7987250089645388 -0.8719341754913329 2.8058522939682011 2.2971669435501103 -0.31301701068878168 -2.1036731004714961 2.2392048835754399 0.65882346034049999 1.5119404792785647 1.4206462502479555 2.7046037912368779 2.1048687696456914 -1.1708368659019468 -1.928428530693054 -1.542605400085449 0.43926298618316656 0.20824380218982699 0.31102630496025091 -1.4107083678245542 1.1307532191276553 -2.5910360813140865 2.441415667533875 0.082953449338674559 1.8161436319351199 2.6185088157653813 2.3557255268096928 -0.3082300573587417
decision_type=2 2 2 2 2 2 2 2 2 2 2 2 2 2 2 2 2 2 2 2 2 2 2 2 2 2 2 2 2 2
left_child=1 4 6 16 11 7 -2 15 21 24 19 20 -11 14 26 22 -3 -8 -14 -6 -1 -5 -4 -15 -9 27 -7 -22 -16 -18
right_child=2 3 5 8 10 13 17 9 -10 12 -12 -13 18 23 28 -17 29 -19 -20 -21 25 -23 -24 -25 -26 -27 -28 -29 -30 -31
leaf_value=0.0027583865635385512 -0.0021319067264248641 -0.0059916371711582908 -0.0079056115677110152 0.0018295562173473309 0.00068567609280368409 -0.029267505336641842 -0.037038771178695029 -0.0083383513115891702 -0.0056071535112554921 -0.022368938605220944 -0.0010214010081718964 -0.00087306526653265501 -0.033998194515642823 -0.10425380671684578 -0.0126093954517688 -0.010587703500210316 -0.0022101331474372815 -0.0098000749260557588 -0.080619491391558329 0.0022696432084680562 0.0044010640107856047 -0.018247647051661341 0.013362193256756038 -0.04200692887811544 -0.021183699857017849 0.0075711457225208032 -0.073345255848342714 -0.0069873223167867936 0.035798022178385187 -0.00051103506470623957
leaf_weight=345632 102774 58953 3882 2867 1033363 7855 1711 14219 132360 7803 293428 65557 1597 369 1628 28697 465222 35658 812 744515 198500 18570 4743 717 9094 110468 494 7033 476 688056
leaf_count=345632 102774 58953 3882 2867 1033363 7855 1711 14219 132360 7803 293428 65557 1597 369 1628 28697 465222 35658 812 744515 198500 18570 4743 717 9094 110468 494 7033 476 688056
internal_value=8.4338e-12 0.000443458 -0.00829911 -0.0020562 0.00166361 -0.014746 -0.00450917 -0.012374 -0.00699478 -0.0180615 0.00101319 0.00351626 -0.0288193 -0.0293098 -0.0257933 -0.0072651 -0.00142964 -0.0110472 -0.0497128 0.00134899 0.00395117 -0.0155625 0.00378983 -0.0631571 -0.0133491 0.0052558 -0.0318755 0.00401137 -0.00165791 -0.00119644
internal_weight=4.38705e+06 4.16452e+06 222529 1.36603e+06 2.7985e+06 82386 140143 70847 153797 33525 2.07131e+06 727190 10212 11539 10453 37322 1.21223e+06 37369 2409 1.77788e+06 661633 21437 8625 1086 23313 316001 8349 205533 2104 1.15328e+06
internal_count=4387053 4164524 222529 1366028 2798496 82386 140143 70847 153797 33525 2071306 727190 10212 11539 10453 37322 1212231 37369 2409 1777878 661633 21437 8625 1086 23313 316001 8349 205533 2104 1153278
is_linear=0
shrinkage=0.07


Tree=9
num_leaves=31
num_cat=0
split_feature=65 121 62 36 121 71 31 10 121 126 70 115 95 121 70 31 75 48 121 83 96 71 74 83 29 68 47 62 14 46
split_gain=2894.09 2043.15 1348.01 1011.77 718.964 561.962 517.052 533.988 495.744 492.207 478.874 298.949 299.841 294.323 261.987 243.19 243.622 233.956 229.976 224.815 218.115 209.377 208.395 203.068 188.222 188.022 198.698 173.011 170.642 166.154
threshold=1.492180407047272 0.1159249320626259 2.4494342803955083 -1.542605400085449 1.5295715332031252 1.4615052938461306 2.2032727003097539 -0.96048876643180836 -0.95302662253379811 -0.74280437827110279 1.9724579453468325 2.1420105695724492 -1.679219603538513 0.21780593693256381 2.4431934356689458 0.67960104346275341 1.3985748887062075 -0.09726426005363463 -1.0249298214912412 -0.60957860946655262 1.4301754236221316 -0.38246096670627588 -1.389565587043762 -0.028976892121136185 -0.55803823471069325 -0.030368597246706482 0.061735687777400024 0.81227564811706554 2.4055552482604985 -0.24874035269021985
decision_type=2 2 2 2 2 2 2 2 2 2 2 2 2 2 2 2 2 2 2 2 2 2 2 2 2 2 2 2 2 2
left_child=1 8 10 15 23 6 7 18 17 21 13 -9 -13 -2 -8 29 -17 -1 -5 -10 -7 -6 -12 -3 -19 -14 -27 -23 -22 -4
right_child=2 4 3 5 9 20 14 11 19 -11 22 12 25 -15 -16 16 -18 24 -20 -21 28 27 -24 -25 -26 26 -28 -29 -30 -31
leaf_value=0.0025957953112586783 0.00069052404259282519 -0.001717472129332069 -0.057168304413329027 0.013602858780167466 -0.004543148004395578 -0.019059750820222925 -0.017704803102351979 -0.0061156945778102316 0.00025225333855510791 -0.0022407316656487732 -0.013853296773436349 0.00479625187631474 -0.0056480759321414819 -0.0045979219646468854 -0.044802881900182272 -0.036629371616911502 -0.08740446715363899 0.0090313000695244842 -0.0025420758680395599 0.0019366773248150658 -0.028857225657449279 -0.0073226230513128987 -0.005548816166354476 3.3684539379195996e-05 0.0043047819408648337 -0.026822106893908789 -0.013081322404531266 -0.014692513385807677 -0.062086001449092189 -0.021361109633896796
leaf_weight=376191 123417 503931 874 6586 46772 9028 6416 37362 612547 197929 22251 3154 4857 88574 2403 891 964 54479 12583 1060339 2300 33761 44257 911202 170455 12020 9031 29028 1129 2322
leaf_count=376191 123417 503931 874 6586 46772 9028 6416 37362 612547 197929 22251 3154 4857 88574 2403 891 964 54479 12583 1060339 2300 33761 44257 911202 170455 12020 9031 29028 1129 2322
internal_value=-9.84557e-12 0.000561935 -0.00575241 -0.0122408 -0.00125652 -0.0107939 -0.00895006 -0.00728725 0.00193946 -0.0043244 -0.00314492 -0.0102574 -0.015582 -0.00151909 -0.0250885 -0.0428549 -0.063016 0.00366364 0.00300493 0.00131991 -0.0247683 -0.00808869 -0.00832717 -0.000589905 0.00544954 -0.0180628 -0.0209272 -0.0107298 -0.0397978 -0.0311532
internal_weight=4.38705e+06 3.99663e+06 390419 111920 1.72262e+06 106869 94412 85593 2.27401e+06 307490 278499 66424 29062 211991 8819 5051 1855 601125 19169 1.67289e+06 12457 109561 66508 1.41513e+06 224934 25908 21051 62789 3429 3196
internal_count=4387053 3996634 390419 111920 1722623 106869 94412 85593 2274011 307490 278499 66424 29062 211991 8819 5051 1855 601125 19169 1672886 12457 109561 66508 1415133 224934 25908 21051 62789 3429 3196
is_linear=0
shrinkage=0.07


Tree=10
num_leaves=31
num_cat=0
split_feature=115 121 62 32 69 31 121 62 71 121 121 67 71 75 106 71 103 95 94 63 98 31 21 19 43 82 48 70 82 62
split_gain=2588.59 1560.63 1162.21 739.172 646.568 485.1 461.764 457.937 465.478 426.333 381.567 324.653 323.779 307.774 287.858 277.34 258.161 248.174 273.04 246.511 234.838 229.015 217.639 210.263 200.006 197.678 170.193 171.748 163.337 162.253
threshold=1.9145030379295351 0.22705711424350741 2.4494342803955083 -0.20367946475744245 2.1332700252532963 2.1588855981826787 -0.79952374100685109 0.54751402139663707 0.35056103765964514 -0.35697685182094568 -1.2963923215866087 2.237483143806458 1.5442589521408083 1.5109615325927737 1.765047609806061 0.46063351631164556 -2.1036731004714961 -0.61676490306854237 -2.652671098709106 0.84816318750381481 -2.0278909206390376 0.81603530049324047 -0.76521757245063771 -1.0590667128562925 2.0474367141723637 0.49241988360881811 0.42563875019550329 2.4106330871582036 0.63727259635925304 2.8058522939682011
decision_type=2 2 2 2 2 2 2 2 2 2 2 2 2 2 2 2 2 2 2 2 2 2 2 2 2 2 2 2 2 2
left_child=1 4 9 10 6 11 19 -3 26 -2 21 17 -11 -6 -14 -12 -10 -5 29 28 23 -4 -22 -15 -7 -8 27 -9 -1 -19
right_child=2 7 3 5 13 24 25 8 16 12 15 -13 14 20 -16 -17 -18 18 -20 -21 22 -23 -24 -25 -26 -27 -28 -29 -30 -31
leaf_value=0.0017566487204793702 0.001757548891877532 -0.00072895304697023636 0.0072355740095341797 -0.005068906717985963 -0.0016934148176253429 -0.032986082895556941 0.0005947934546329097 -0.0029985886859671528 -0.016804833703289744 -0.0034987814603476145 -0.0071116633388013939 -0.03700411924265485 -0.0073697138153128432 -0.0028761065720143727 -0.021327819778131231 -0.018994575247020955 -0.0064178501878441882 -0.022719337646320184 -0.011551611264990672 0.0053820094587594776 0.0025093013128706372 -0.013407788151751705 -0.012499626814066024 -0.036335077376340182 -0.078471952354295174 0.0022192342128144115 0.000839980437791909 -0.01784906911610239 0.0044355965940488257 -0.042232102032505568
leaf_weight=423095 57235 1219370 10489 7208 88730 959 1159170 126180 13893 119850 27444 4258 28780 1359 9673 14822 75130 8170 9620 188160 7147 3516 14022 2851 936 537170 69641 3935 151435 2805
leaf_count=423095 57235 1219370 10489 7208 88730 959 1159170 126180 13893 119850 27444 4258 28780 1359 9673 14822 75130 8170 9620 188160 7147 3516 14022 2851 936 537170 69641 3935 151435 2805
internal_value=-7.68496e-12 0.000465413 -0.00621224 -0.0128825 0.00151336 -0.0210386 0.00175239 -0.00132255 -0.00382903 -0.00342 -0.00796072 -0.0190045 -0.00529196 -0.00363768 -0.0108809 -0.0112788 -0.00803885 -0.0162479 -0.0201605 0.00318296 -0.0104352 0.00205299 -0.00743237 -0.0255344 -0.055453 0.0011092 -0.00195289 -0.0034477 0.00246277 -0.0277064
internal_weight=4.38705e+06 4.08129e+06 305765 90227 2.57314e+06 33956 2.45903e+06 1.50815e+06 288779 215538 56271 32061 158303 114109 38453 42266 89023 27803 20595 762690 25379 14005 21169 4210 1895 1.69634e+06 199756 130115 574530 10975
internal_count=4387053 4081288 305765 90227 2573139 33956 2459030 1508149 288779 215538 56271 32061 158303 114109 38453 42266 89023 27803 20595 762690 25379 14005 21169 4210 1895 1696340 199756 130115 574530 10975
is_linear=0
shrinkage=0.07


Tree=11
num_leaves=31
num_cat=0
split_feature=62 121 14 63 31 32 46 69 36 121 96 121 21 71 62 71 55 67 75 119 73 84 121 36 121 77 74 83 25 71
split_gain=2304.78 1685.3 1051.29 782.142 694.251 658.009 430.795 388.264 374.605 338.057 323.946 286.035 277.197 249.558 273.248 209.712 206.814 206.538 201.832 201.737 197.595 244.021 194.069 193.051 205.041 188.714 186.862 183.059 175.893 171.335
threshold=2.4494342803955083 -0.026429700665175911 1.8736490011215212 1.2617183923721316 2.1588855981826787 -0.53330686688423146 -0.19339881837368009 1.0472027659416201 -1.2233529686927793 -1.3235976099967954 1.4301754236221316 -1.1487118601799009 -0.86658895015716542 0.29994398355484014 0.83856403827667247 0.51846981048583995 2.3463008403778081 2.237483143806458 1.4432157278060915 -0.42847900092601771 -1.7312715053558347 -1.6468110680580137 1.1772792935371401 -1.3531529307365415 1.7327624559402468 -1.4052397608757017 1.6961919665336611 -0.037463031709194176 0.65988028049469005 1.3110195398330691
decision_type=2 2 2 2 2 2 2 2 2 2 2 2 2 2 2 2 2 2 2 2 2 2 2 2 2 2 2 2 2 2
left_child=1 7 6 22 5 11 23 9 18 -1 20 -4 -9 -5 -15 -8 19 29 -6 -10 -7 -22 27 -2 -25 -11 -14 -3 -19 -12
right_child=2 3 4 13 8 10 15 12 16 25 17 -13 26 14 -16 -17 -18 28 -20 -21 21 -23 -24 24 -26 -27 -28 -29 -30 -31
leaf_value=0.0043154797191398151 -0.02287142527241532 -0.0011561713540109849 0.0078451512851233172 -0.002235736822368487 -0.036674753934311577 0.0044650342822344291 0.00071465163142620718 0.0033743964004015656 -0.047130673361483674 -0.00042423467221591808 -0.017632350814163179 -0.0074218251953995324 -0.0011498714246941128 -0.0047973775264406942 -0.011785900193484199 -0.0067739744684735519 0.0030329719127704068 -0.030428408414269817 -0.089867285073694556 -0.022068535130476921 -0.024915741928702308 -0.0087187845110047284 -0.0021469374523455454 -0.0054645093388095076 -0.018159430941084988 0.0020088618378993569 -0.0074365095327330105 0.00041994245874874252 -0.06938102018397381 -0.042146452900581471
leaf_weight=295199 4287 600147 8949 109572 682 3306 84014 61882 2178 176548 11357 18330 175502 100104 37754 23435 1128 1953 717 5673 6736 14095 303931 41378 7340 1355276 26691 906495 801 1593
leaf_count=295199 4287 600147 8949 109572 682 3306 84014 61882 2178 176548 11357 18330 175502 100104 37754 23435 1128 1953 717 5673 6736 14095 303931 41378 7340 1355276 26691 906495 801 1593
internal_value=-3.46043e-12 0.000384232 -0.00669975 -0.00103785 -0.0133947 -0.0107895 -0.00346615 0.00178381 -0.0302439 0.00214644 -0.0165245 -0.00241342 -0.00072509 -0.00472932 -0.00671126 -0.000918644 -0.0249943 -0.0243499 -0.0639364 -0.0290212 -0.0114332 -0.0139563 -0.000533377 -0.00863033 -0.00737716 0.00172844 -0.00197976 -0.000207878 -0.0417578 -0.0206479
internal_weight=4.38705e+06 4.1491e+06 237952 2.058e+06 77498 67120 160454 2.0911e+06 10378 1.82702e+06 39841 27279 264075 247430 137858 107449 8979 15704 1399 7851 24137 20831 1.81057e+06 53005 48718 1.53182e+06 202193 1.50664e+06 2754 12950
internal_count=4387053 4149101 237952 2058003 77498 67120 160454 2091098 10378 1827023 39841 27279 264075 247430 137858 107449 8979 15704 1399 7851 24137 20831 1810573 53005 48718 1531824 202193 1506642 2754 12950
is_linear=0
shrinkage=0.07


Tree=12
num_leaves=31
num_cat=0
split_feature=65 121 63 121 70 32 126 121 14 87 121 31 62 78 83 43 14 121 40 99 71 48 32 77 95 103 73 60 102 101
split_gain=2091 1356.67 964.486 567.169 528.045 465.716 426.831 362.818 356.219 303.335 299.241 268.034 267.208 239.726 234.898 200.602 193.637 184.333 176.966 173.827 173.121 171.924 171.051 169.873 183.499 232.627 160.78 150.169 149.814 148.874
threshold=1.492180407047272 -0.026429700665175911 2.4018727540969853 1.4942801594734194 2.4431934356689458 -0.20367946475744245 -0.86840918660163868 -1.3528598546981809 2.0652990341186528 0.98919335007667553 -1.5156683921813963 2.2477015256881718 2.8058522939682011 -0.48512281477451319 -0.63215577602386464 2.0829876661300664 2.4518318176269536 -0.31759256124496454 1.2960320115089419 -2.4060626029968257 -0.38246096670627588 -0.32012651860713953 -1.0512736439704893 -1.0425304174423216 0.08602434024214746 -2.1901949644088741 0.49883739650249487 2.0881626605987553 -2.8707937002182002 -2.5091074705123897
decision_type=2 2 2 2 2 2 2 2 2 2 2 2 2 2 2 2 2 2 2 2 2 2 2 2 2 2 2 2 2 2
left_child=1 10 4 23 12 7 20 18 -7 19 21 -10 13 -2 29 -13 28 -15 -4 -6 -5 -1 -8 -3 -25 -26 -16 -11 -9 -12
right_child=2 3 5 6 9 8 22 16 11 27 14 15 -14 17 26 -17 -18 -19 -20 -21 -22 -23 -24 24 25 -27 -28 -29 -30 -31
leaf_value=0.0023005979205671699 -0.0055059259493790607 -0.0019028407621621013 -0.0061371750180913183 -0.0040973690276750064 -0.030267500855301426 -0.010961766550646001 0.0021297384389526064 -0.037352919532911477 -0.023803593796041085 -0.016156175214557207 -0.0065474981148263209 -0.033802315062296223 -0.011840559767150689 0.0017592855830653327 0.0025109149586296305 -0.094666106416162868 -0.021782074711270957 -0.0024617480840460832 0.010200477665210417 -0.0061312961605731525 -0.010083626359554711 0.0060278094214660915 -0.0027835660083919502 0.00084747615613665027 -0.0073522278803219033 -0.00052255565860190019 0.00031835697027410525 -0.035667609479849205 -0.007556326651206491 0.00059588664609965209
leaf_weight=128519 61475 271440 6328 42581 1544 14200 42860 858 14158 6488 14599 618 13302 93900 865114 465 7157 110176 6676 27561 53307 114816 182804 668320 25326 696559 202179 2753 22760 688210
leaf_count=128519 61475 271440 6328 42581 1544 14200 42860 858 14158 6488 14599 618 13302 93900 865114 465 7157 110176 6676 27561 53307 114816 182804 668320 25326 696559 202179 2753 22760 688210
internal_value=-3.97196e-11 0.000477647 -0.00488957 -0.000821845 -0.00321798 -0.0121311 -0.00351285 -0.007553 -0.0189388 -0.0109198 0.00175762 -0.026371 -0.00215887 -0.0016739 0.00144122 -0.059935 -0.0116954 -0.000519555 0.00225026 -0.00741171 -0.00742531 0.00405926 -0.00185039 -0.000301096 1.16471e-05 -0.000762162 0.00209558 -0.0219689 -0.00863878 0.000447502
internal_weight=4.38705e+06 3.99663e+06 390419 1.9832e+06 317199 73220 321552 43779 29441 38346 2.01344e+06 15241 278853 265551 1.7701e+06 1083 30775 204076 13004 29105 95888 243335 225664 1.66164e+06 1.3902e+06 721885 1.06729e+06 9241 23618 702809
internal_count=4387053 3996634 390419 1983197 317199 73220 321552 43779 29441 38346 2013437 15241 278853 265551 1770102 1083 30775 204076 13004 29105 95888 243335 225664 1661645 1390205 721885 1067293 9241 23618 702809
is_linear=0
shrinkage=0.07


Tree=13
num_leaves=31
num_cat=0
split_feature=115 121 14 70 69 104 95 63 62 71 71 82 105 39 19 76 98 27 125 62 87 21 62 48 6 93 40 95 27 48
split_gain=1837.69 1045.27 837.508 558.594 459.429 355.864 380.622 352.675 336.311 360.076 297.921 285.387 263.384 259.619 256.547 238.294 239.352 235.481 199.89 192.222 191.414 177.632 172.524 167.023 164.528 211.835 158.411 158.066 151.817 146.337
threshold=1.9145030379295351 0.22705711424350741 1.8736490011215212 2.4106330871582036 2.1332700252532963 -0.62374138832092274 -1.679219603538513 1.1236566901206972 0.48903036117553716 -0.41120812296867365 0.88861906528472911 0.49241988360881811 -0.66022533178329457 1.0415853261947634 -0.3082300573587417 -1.543275713920593 -2.0278909206390376 1.5819343924522402 -0.8023487627506255 1.3535156250000002 1.2944648861885073 -0.81009033322334278 2.8058522939682011 0.34032714366912847 -0.060596410185098641 -0.98449838161468495 2.1643747091293339 0.025388806127011779 0.87103378772735607 0.11471689119935037
decision_type=2 2 2 2 2 2 2 2 2 2 2 2 2 2 2 2 2 2 2 2 2 2 2 2 2 2 2 2 2 2
left_child=1 4 10 5 7 6 -4 11 -3 -10 -2 24 17 -8 23 16 18 20 -6 -12 -5 -18 -15 27 25 -1 -14 -11 -7 -9
right_child=2 8 3 12 15 28 13 29 9 14 19 -13 26 22 -16 -17 21 -19 -20 -21 -22 -23 -24 -25 -26 -27 -28 -29 -30 -31
leaf_value=-0.0034163341462527977 -0.0011301003302889943 -0.00054264661862010646 0.0067292911475938747 -0.021770722277114213 -0.0025710594144148515 -0.00074774684145204073 -0.0085619952867175379 0.0033801180476663241 -0.00035036901420567598 -0.0042173907336202875 -0.0044738206184970781 0.0023841490503993894 -0.017842152637740347 -0.016912955318156078 -0.0017746728467309433 -0.0012676760162775504 0.0031562528890850998 -0.072654770185387796 -0.033803436229278887 -0.013216846456772036 -0.048912685718656909 -0.0099702496300590436 -0.032272338740910726 -0.0038658034890437436 0.0014719989727761773 0.00039626633606921189 0.013461757955181881 -0.011666114477790087 -0.01095317754214287 0.0082433170829785008
leaf_weight=78765 150974 1201138 4375 4909 1503 27264 16758 110705 130483 19827 43978 726404 6206 16652 66680 86097 7355 660 3025 17118 1719 16129 4566 42850 736816 764587 908 47171 9678 41753
leaf_count=78765 150974 1201138 4375 4909 1503 27264 16758 110705 130483 19827 43978 726404 6206 16652 66680 86097 7355 660 3025 17118 1719 16129 4566 42850 736816 764587 908 47171 9678 41753
internal_value=-7.00042e-12 0.000392142 -0.00523423 -0.0107459 0.00124978 -0.00844239 -0.0128222 0.00145127 -0.00107112 -0.00313872 -0.00279913 0.00123575 -0.023428 -0.0150746 -0.00519977 -0.0030923 -0.0087004 -0.0327807 -0.0234363 -0.00692346 -0.0288101 -0.00585913 -0.0202182 -0.00727888 0.000707827 4.01879e-05 -0.0138467 -0.00946178 -0.00342135 0.00471198
internal_weight=4.38705e+06 4.08129e+06 305765 93695 2.57314e+06 79293 42351 2.45903e+06 1.50815e+06 307011 212070 2.30657e+06 14402 37976 176528 114109 28012 7288 4528 61096 6628 23484 21218 109848 1.58017e+06 843352 7114 66998 36942 152458
internal_count=4387053 4081288 305765 93695 2573139 79293 42351 2459030 1508149 307011 212070 2306572 14402 37976 176528 114109 28012 7288 4528 61096 6628 23484 21218 109848 1580168 843352 7114 66998 36942 152458
is_linear=0
shrinkage=0.07


Tree=14
num_leaves=31
num_cat=0
split_feature=65 121 63 103 32 121 31 95 75 121 31 48 39 71 121 19 46 62 32 83 55 64 73 77 33 32 29 106 63 98
split_gain=1655.72 1203.84 573.744 461.689 409.682 407.955 331.839 322.843 271.429 260.975 243.326 241.56 253.98 238.496 221.591 215.589 201.011 199.172 195.494 188.441 187.851 187.456 185.561 180.782 167.541 165.747 165.348 160.512 158.49 154.428
threshold=2.179673552513123 0.46622683107852941 2.168048739433289 -2.1901949644088741 -0.53330686688423146 -0.74490034580230702 2.0547358989715581 0.45714236795902258 1.3783962130546572 -1.4486960172653196 2.1125669479370122 0.1874555051326752 0.7994179129600526 0.80716234445571911 1.6096196770668032 -0.78076153993606556 -0.030087517574429509 1.6803829669952395 0.37687270343303686 -0.59740638732910145 1.5959885716438296 -0.26493586599826807 0.36770930886268621 -1.6796072125434873 -1.0185180902481077 -1.0512736439704893 -0.56766775250434864 2.353340864181519 0.31102630496025091 -2.1959000825881954
decision_type=2 2 2 2 2 2 2 2 2 2 2 2 2 2 2 2 2 2 2 2 2 2 2 2 2 2 2 2 2 2
left_child=1 5 8 7 9 11 13 -3 -2 20 18 12 23 21 -5 -16 -9 -8 -10 -7 -4 -6 -21 -1 -19 -17 -13 -15 -25 -12
right_child=2 3 4 14 6 19 17 16 10 -11 29 26 -14 27 15 25 -18 24 -20 22 -22 -23 -24 28 -26 -27 -28 -29 -30 -31
leaf_value=-0.0028498973794355738 -0.0019396130470704976 -0.0014717726541467432 -0.0047201796297507825 -0.00067191027102522457 -0.014518107691057982 -0.00043189440920522547 -0.0096259217632152245 -0.015157094609420392 -0.0029499594949660137 -0.0092899641831453595 -0.04476518981461533 0.0079668187038777361 -0.0014558220961985344 -0.013762058637181046 -0.0058753522596453039 0.0024407964091915069 -0.0041718014138212786 -0.092980272094290925 -0.015286704269001302 0.00147657409534028 0.016358549663828957 -0.00060744768967597442 -0.00035095609249393664 0.001522229136633458 -0.040361751415228853 -0.0026791362002738781 0.0033324567844989902 -0.028095196275547466 0.0040473754934366871 -0.016243119368178134
leaf_weight=31819 119132 26731 4261 873806 11897 661632 913 24950 22691 19560 1168 47036 108171 8031 85144 38839 12130 348 8710 1043430 4032 7898 368345 287453 2004 153159 190542 7316 211337 4568
leaf_count=31819 119132 26731 4261 873806 11897 661632 913 24950 22691 19560 1168 47036 108171 8031 85144 38839 12130 348 8710 1043430 4032 7898 368345 287453 2004 153159 190542 7316 211337 4568
internal_value=1.266e-11 0.000314351 -0.00588293 -0.00154024 -0.0113414 0.0010781 -0.0160288 -0.00733597 -0.00356846 -0.00487799 -0.00879363 0.00234433 0.00163557 -0.0140455 -0.00121891 -0.00294357 -0.0115635 -0.0373754 -0.00637192 0.00054291 0.00552815 -0.0089679 0.000999755 0.00226579 -0.0481471 -0.00164343 0.00424997 -0.0205947 0.00259213 -0.022051
internal_weight=4.38705e+06 4.16452e+06 222529 1.21476e+06 66260 2.94976e+06 38407 63811 156269 27853 37137 876358 638780 35142 1.15095e+06 277142 37080 3265 31401 2.07341e+06 8293 19795 1.41178e+06 530609 2352 191998 237578 15347 498790 5736
internal_count=4387053 4164524 222529 1214759 66260 2949765 38407 63811 156269 27853 37137 876358 638780 35142 1150948 277142 37080 3265 31401 2073407 8293 19795 1411775 530609 2352 191998 237578 15347 498790 5736
is_linear=0
shrinkage=0.07


Tree=15
num_leaves=31
num_cat=0
split_feature=62 121 32 70 31 121 115 121 63 63 17 75 71 103 17 48 69 70 6 75 63 65 47 43 42 6 67 40 21 109
split_gain=1538.65 1018.79 747.784 580.441 407.582 393.08 358.632 354.763 331.977 321.031 267.303 228.467 224.979 233.433 222.125 215.021 239.587 194.978 186.08 181.375 178.063 172.229 163.223 181.621 158.006 153.689 152.446 151.931 144.77 143.665
threshold=2.4494342803955083 0.47769120335578924 -0.20367946475744245 2.4431934356689458 2.2032727003097539 -0.55657130479812611 0.66265717148780834 -1.5789907574653623 2.0168279409408574 2.4018727540969853 -0.58725470304489125 1.3184214830398562 0.031457809731364257 -0.95233860611915577 -0.67102602124214161 -0.020330050028860566 1.0472027659416201 0.98649173974990856 -0.75253582000732411 1.4206462502479555 0.61800661683082592 2.62696385383606 0.3544487357139588 2.2027802467346196 -0.68385574221611012 -0.72644722461700428 1.9964289069175722 -1.0390180945396421 -1.2247602939605711 -0.39910483360290522
decision_type=2 2 2 2 2 2 2 2 2 2 2 2 2 2 2 2 2 2 2 2 2 2 2 2 2 2 2 2 2 2
left_child=1 5 4 9 7 15 -3 18 -9 22 -5 -6 -8 -14 -13 16 29 27 -2 -12 -17 -11 23 -4 -23 -10 -16 -7 -20 -1
right_child=2 6 3 10 11 17 12 8 25 21 19 14 13 -15 26 20 -18 -19 28 -21 -22 24 -24 -25 -26 -27 -28 -29 -30 -31
leaf_value=0.0030997767118350603 -0.016648276904751989 -0.000562560048428015 -0.0064579448919228032 -0.013112094633956663 -0.0061537172591408819 0.0022003409873292447 -0.0011527691827089891 -0.00069826115078133028 -0.025184113610844779 -0.01371581527762431 -0.019785045163940116 0.0039863694626282491 -0.0090369591898141668 -0.0034459437594536349 -0.022240215865727341 0.0025066457196391365 -0.0017344696251883154 -0.0018160408309475737 0.017080277280910411 -0.042905557158384067 0.0059610652021373257 0.10325121601907218 0.00026052947850831404 -0.020476693103553011 -0.035234347771172195 -0.0078232189608307065 -0.049656191473492851 0.00032867004720618361 0.0045164986715002294 0.00095166974911457445
leaf_weight=261754 1677 797634 42182 5679 6459 250645 162586 78257 2764 14107 2781 985 45634 184656 2539 300457 107099 179504 5852 4134 96633 41 15775 5073 2628 26020 1633 1396800 19366 365699
leaf_count=261754 1677 797634 42182 5679 6459 250645 162586 78257 2764 14107 2781 985 45634 184656 2539 300457 107099 179504 5852 4134 96633 41 15775 5073 2628 26020 1633 1396800 19366 365699
internal_value=-1.90829e-11 0.000313941 -0.00547411 -0.0103992 -0.00234754 0.00100975 -0.00141523 -0.00125666 -0.0030625 -0.00819524 -0.0243654 -0.0149257 -0.00314636 -0.00455385 -0.0259123 0.00203494 0.00132549 0.000374725 0.00593051 -0.0336072 0.00334729 -0.0168009 -0.00590477 -0.00796291 -0.033107 -0.00949031 -0.0329713 0.000613429 0.007432 0.00184779
internal_weight=4.38705e+06 4.1491e+06 237952 92400 145552 2.95859e+06 1.19051e+06 133936 107041 79806 12594 11616 392876 230290 5157 1.13164e+06 734552 1.82695e+06 26895 6915 397090 16776 63030 47255 2669 28784 4172 1.64744e+06 25218 627453
internal_count=4387053 4149101 237952 92400 145552 2958591 1190510 133936 107041 79806 12594 11616 392876 230290 5157 1131642 734552 1826949 26895 6915 397090 16776 63030 47255 2669 28784 4172 1647445 25218 627453
is_linear=0
shrinkage=0.07


Tree=16
num_leaves=31
num_cat=0
split_feature=65 121 62 70 121 78 126 87 62 121 86 120 29 71 39 36 63 115 73 83 43 66 101 56 84 17 75 32 40 36
split_gain=1351.6 812.147 705.765 559.896 368.717 362.456 317.195 282.562 261.39 244.318 239.397 279.52 262.79 210.345 214.467 210.115 208.162 273.221 210.731 195.134 190.784 165.061 161.629 160.679 150.462 163.184 152.148 149.012 146.7 145.879
threshold=1.2995461821556094 -0.24637813866138455 2.8058522939682011 2.4431934356689458 1.4942801594734194 -0.19707661867141721 -0.91129076480865467 1.4241737723350527 1.6183110475540163 -0.97011196613311756 -1.3807982206344602 -0.94018214941024769 -0.56280541419982899 -0.24116235971450803 1.4084515571594241 -1.4853275418281553 2.7046037912368779 2.3504525423049931 -1.8433558344841001 0.089805994182825102 1.3687822818756106 -2.5910360813140865 -2.5091074705123897 -1.0090282559394834 -1.8497833013534544 -0.40581515431404108 1.490146338939667 0.58035057783126842 -0.090612672269344316 -0.3634690642356872
decision_type=2 2 2 2 2 2 2 2 2 2 2 2 2 2 2 2 2 2 2 2 2 2 2 2 2 2 2 2 2 2
left_child=1 10 3 5 19 8 -6 27 -2 -7 22 12 -12 -11 -15 -10 18 -18 -4 -3 -20 28 -1 -21 -22 -26 -27 -5 -19 -13
right_child=2 4 16 7 6 9 -8 -9 15 13 11 29 -14 14 -16 -17 17 21 20 23 24 -23 -24 -25 25 26 -28 -29 -30 -31
leaf_value=-0.01328412697883752 -0.0030028563473672 -0.00078489103982210353 0.0075951290969059962 -0.0056466712952460375 -0.006272948201303476 0.0030506841944161946 -0.0012677628291785808 -0.022990363765301801 -0.031682538466006556 0.00087732882655949872 0.0071397184466234186 0.0025399039278115642 0.0025936956427010864 -0.0022689519488632722 -0.010130219354845605 -0.0087347346757108459 -0.013408399693835749 0.052869530841708187 -0.0074575289678612969 0.0026812702817331337 -0.032028649585859673 -0.044658708826020424 -0.00026403972877871688 0.00023714389038059444 -0.010579925153509619 -0.017337949403353054 -0.052523543290498971 -0.015875511903893285 -0.12828018098409136 0.00081677465514501412
leaf_weight=4782 88339 964357 2288 33922 85763 70153 224306 6929 2072 81462 84770 375144 235141 84078 21316 34657 994 24 10448 153723 3716 488 202782 924080 7785 1547 986 8786 251 671964
leaf_count=4782 88339 964357 2288 33922 85763 70153 224306 6929 2072 81462 84770 375144 235141 84078 21316 34657 994 24 10448 153723 3716 488 202782 924080 7785 1547 986 8786 251 671964
internal_value=-1.20897e-11 0.000420638 -0.00358892 -0.00288428 -0.000403003 -0.00197567 -0.00265216 -0.00987829 -0.00506633 -0.000471661 0.00165106 0.00198738 0.0037983 -0.00179409 -0.0038589 -0.0100293 -0.0142526 -0.037593 -0.0127207 -6.15046e-05 -0.0146193 -0.0690995 -0.000564005 0.00058574 -0.0199511 -0.0156014 -0.0310344 -0.00775097 -0.112471 0.00143411
internal_weight=4.38705e+06 3.92681e+06 460241 431714 2.35223e+06 382077 310069 49637 125068 257009 1.57458e+06 1.36702e+06 319911 186856 105394 36729 28527 1757 26770 2.04216e+06 24482 763 207564 1.0778e+06 14034 10318 2533 42708 275 1.04711e+06
internal_count=4387053 3926812 460241 431714 2352229 382077 310069 49637 125068 257009 1574583 1367019 319911 186856 105394 36729 28527 1757 26770 2042160 24482 763 207564 1077803 14034 10318 2533 42708 275 1047108
is_linear=0
shrinkage=0.07


Tree=17
num_leaves=31
num_cat=0
split_feature=103 95 121 63 64 99 29 70 35 66 84 99 31 74 61 75 120 86 126 33 77 73 78 50 46 51 40 71 86 31
split_gain=1221.87 948.942 840.281 521.701 411.354 373.606 267.419 296.105 245.034 243.988 235.236 234.646 211.187 210.214 207.356 202.934 201.451 203.521 200.609 184.256 183.101 178.01 176.772 172.031 158.978 158.688 153.795 148.851 154.413 142.546
threshold=-2.1901949644088741 0.63689136505126964 -0.026429700665175911 2.0168279409408574 -0.42903892695903773 0.10440513119101526 -0.61683306097984303 1.8204312920570376 -0.26480120420455927 -1.7328826785087583 -2.2476906776428218 -2.3700277805328365 1.0297471880912783 1.4726295471191408 1.781481981277466 1.4669814109802248 -0.70882916450500477 -0.67242375016212452 -1.1290137767791746 -1.6418477892875669 -1.4750115275382993 -1.8005982041358946 -1.2236469984054563 1.6611079573631289 -0.50992360711097706 -1.4063041806221006 -1.0390180945396421 2.02817714214325 1.1125597953796389 1.0575382709503176
decision_type=2 2 2 2 2 2 2 2 2 2 2 2 2 2 2 2 2 2 2 2 2 2 2 2 2 2 2 2 2 2
left_child=1 4 6 13 12 10 16 20 -7 19 -3 15 22 26 -12 -9 17 -2 -10 -5 -8 -6 -1 -14 -24 -22 -4 28 -11 -17
right_child=2 5 3 9 21 8 7 11 18 27 14 -13 23 -15 -16 29 -18 -19 -20 -21 25 -23 24 -25 -26 -27 -28 -29 -30 -31
leaf_value=-0.020905628681357782 0.002541170500852839 0.0046956469187228039 0.0013631242918675634 -0.035516511638385734 0.0085025111000946799 -0.00027840470292168798 -0.00082412420130690319 -0.0066482944796421948 -0.013245805736172234 -0.0044162512668779368 -0.01326596964456216 -0.0019839243945839824 -0.015345281070580887 -0.0035253199089818965 -0.026370706441315086 -0.015023462748405573 0.001883200647605917 0.0097735317249192082 -0.0055002354449528029 -0.0094729702448166312 0.0041954660511530567 0.00014678710894152467 -0.0098963875264074328 -0.053305218111479973 -4.5833443766340602e-05 0.0013078173179823891 -0.00049582342471286714 -0.0079255699577416849 0.0015975568107451778 -0.05873753109231037
leaf_weight=3315 34378 2278 253560 1405 14430 18978 187623 2278 32250 52037 13927 97496 2659 100460 10286 643 109570 42803 33306 25316 99432 93078 13323 750 20200 1499988 1558183 27267 34987 847
leaf_count=3315 34378 2278 253560 1405 14430 18978 187623 2278 32250 52037 13927 97496 2659 100460 10286 643 109570 42803 33306 25316 99432 93078 13323 750 20200 1499988 1558183 27267 34987 847
internal_value=1.97863e-12 -0.00466599 0.000292487 -0.000711491 -0.000991545 -0.00955604 0.0012859 0.00103599 -0.00728289 -0.00482044 -0.0168098 -0.00264635 -0.00702809 -0.000408484 -0.018833 -0.0197865 0.00381277 0.00655209 -0.00931064 -0.0108423 0.00124465 0.00126831 -0.00548557 -0.0236967 -0.00396073 0.00148734 -0.000235657 -0.00341253 -0.00199847 -0.039873
internal_weight=4.38705e+06 258780 4.12827e+06 2.05322e+06 147755 111025 2.07506e+06 1.88831e+06 84534 141012 26491 101264 40247 1.9122e+06 24213 3768 186751 77181 65556 26721 1.78704e+06 107508 36838 3409 33523 1.59942e+06 1.81174e+06 114291 87024 1490
internal_count=4387053 258780 4128273 2053215 147755 111025 2075058 1888307 84534 141012 26491 101264 40247 1912203 24213 3768 186751 77181 65556 26721 1787043 107508 36838 3409 33523 1599420 1811743 114291 87024 1490
is_linear=0
shrinkage=0.07


Tree=18
num_leaves=31
num_cat=0
split_feature=62 121 32 14 31 82 31 121 115 6 47 104 63 36 121 86 37 64 70 71 126 95 85 106 64 71 108 63 75 21
split_gain=1110.64 716.753 623.982 470.001 390.137 314.764 279.748 269.536 257.318 254.444 246.398 221.722 221.288 213.638 207.453 199.328 194.171 187.804 182.928 180.406 207.333 172.04 217.553 152.262 139.613 139.532 139.065 136.618 136.523 134.87
threshold=2.4494342803955083 0.56336015462875377 -0.31301701068878168 1.8736490011215212 2.1588855981826787 0.22826652973890307 2.2032727003097539 -1.1487118601799009 0.55496671795845043 -0.75253582000732411 -0.22791139036417005 -2.1255389451980586 2.0168279409408574 -1.6022765040397642 -0.95302662253379811 -0.91325077414512623 -0.858283370733261 -0.045284617692232125 2.4106330871582036 0.031457809731364257 -0.59118911623954762 0.24457915872335437 1.0509623289108279 2.1794863939285283 -0.055487863719463341 1.4615052938461306 1.3700181245803835 0.43756629526615148 1.4669814109802248 -1.2247602939605711
decision_type=2 2 2 2 2 2 2 2 2 2 2 2 2 2 2 2 2 2 2 2 2 2 2 2 2 2 2 2 2 2
left_child=1 5 6 17 13 10 7 9 -3 -2 11 24 -9 -5 -7 -8 -6 18 -4 -10 -21 -15 -23 -22 -1 -25 -11 -12 -17 -28
right_child=2 8 3 4 16 14 15 12 19 26 27 -13 -14 21 -16 28 -18 -19 -20 20 23 22 -24 25 -26 -27 29 -29 -30 -31
leaf_value=-0.0095192361691832875 -0.018987065503839405 -0.00044477465947620492 -0.0067219208304371428 -0.036942794067604014 -0.069669268925729708 0.0033709527603834138 -0.033687761812812786 -0.00037853322315437379 -0.00092516533873513004 0.00018207598061856258 0.00068186896185237246 -0.00031572910587468261 -0.0082013438094714983 -0.0045080174289909717 0.0011882622101106548 -0.0020926820532166908 -0.028702347412408787 -0.0014281084093018012 -0.020589250358899552 -0.0071741363170223938 -0.0021020262164064239 -0.021337476567250071 -0.0062845881344133041 -0.0023363773245463505 -0.0021611063598381604 -0.019446141440115122 0.018757930840520565 0.003103892723622311 -0.020138615101715711 0.0061838495011647503
leaf_weight=20359 2070 666053 32342 1752 802 271653 1767 63905 168215 11485 757220 865355 24516 10409 994482 6233 1934 31924 5446 68378 160352 12362 7595 4465 33306 4897 5878 134366 3064 14468
leaf_count=20359 2070 666053 32342 1752 802 271653 1767 63905 168215 11485 757220 865355 24516 10409 994482 6233 1934 31924 5446 68378 160352 12362 7595 4465 33306 4897 5878 134366 3064 14468
internal_value=-3.69325e-12 0.000266726 -0.00465082 -0.00869937 -0.0153365 0.000809889 -0.00147702 -0.000512903 -0.00129168 0.00479381 0.000217819 -0.000586492 -0.00254752 -0.013175 0.00165656 -0.0121362 -0.0407109 -0.005381 -0.00872048 -0.00268 -0.00391982 -0.0118036 -0.0156088 -0.00260865 -0.00495258 -0.011286 0.0063403 0.00104688 -0.00804006 0.00981653
internal_weight=4.38705e+06 4.1491e+06 237952 104566 34854 3.07674e+06 133386 122322 1.07236e+06 33901 1.81061e+06 919020 88421 32118 1.26614e+06 11064 2736 69712 37788 406307 238092 30366 19957 169714 53665 9362 31831 891586 9297 20346
internal_count=4387053 4149101 237952 104566 34854 3076741 133386 122322 1072360 33901 1810606 919020 88421 32118 1266135 11064 2736 69712 37788 406307 238092 30366 19957 169714 53665 9362 31831 891586 9297 20346
is_linear=0
shrinkage=0.07


Tree=19
num_leaves=31
num_cat=0
split_feature=70 61 121 32 101 121 31 21 74 126 120 53 87 77 95 97 78 120 36 95 32 10 75 58 56 73 73 7 109 87
split_gain=1003.98 691.206 677.053 378.235 365.505 319.274 311.539 298.523 301.157 222.236 261.61 218.125 188.974 187.952 193.623 220.084 180.556 190.384 176.873 157.503 154.986 154.491 149.306 163.496 145.315 144.884 141.791 138.282 186.29 133.993
threshold=1.4426742792129519 2.0030952692031865 0.76181849837303173 0.074521888047456755 -2.8909398317337032 -0.75865718722343434 2.2032727003097539 -0.74364814162254322 1.6506419181823733 -0.97774326801300038 0.2122311741113663 2.0757900476455693 1.6518833637237551 -1.0425304174423216 -0.57744416594505299 -2.4931842088699336 -0.89970102906227101 -1.754719018936157 0.27730756998062139 -0.65813159942626942 -0.6154518425464629 -1.0438904166221616 1.4206462502479555 -1.0871558189392088 -1.3819001317024229 -1.1559984683990476 0.96648135781288158 -0.10847605019807814 0.027700833044946197 1.5158196091651919
decision_type=2 2 2 2 2 2 2 2 2 2 2 2 2 2 2 2 2 2 2 2 2 2 2 2 2 2 2 2 2 2
left_child=2 7 5 6 19 16 11 -2 -9 10 -6 29 -10 25 -15 -16 -1 -18 -5 -4 -13 26 -8 -24 -17 -7 -11 28 -19 -3
right_child=1 3 4 18 9 13 22 8 12 21 -12 20 -14 14 15 24 17 27 -20 -21 -22 -23 23 -25 -26 -27 -28 -29 -30 -31
leaf_value=-0.00012727120141208063 0.00099095948135861553 -0.004661616686798202 0.0022042986417956409 -0.024708590786855986 0.00035286102292617858 -0.0035502929029180095 -0.011004415661384178 -0.0022558364586269153 -0.0067659884078214534 0.00024363770246630537 -0.0054342392012575172 0.021681006659169996 -0.019711347208634978 0.0020816060139763688 -0.0056903755950073976 0.0031319956870091798 0.0064261840279601296 0.0026067551308748939 -0.011262606767062413 -0.014472705392324585 -0.0036997576430596352 -0.0011097407165517148 -0.11905309453898787 -0.028841511390819637 0.00026377327865149757 -0.00031683211581898685 0.0062804893358511258 0.0033188316918706254 -0.0006690235472368571 -0.024682756615839838
leaf_weight=162480 101931 24958 3421 10332 57643 83001 3848 182426 41979 65652 113924 2625 6363 383867 29252 92232 54834 198113 8943 14693 2140 515859 102 2822 1405577 373260 26866 267080 149077 1753
leaf_count=162480 101931 24958 3421 10332 57643 83001 3848 182426 41979 65652 113924 2625 6363 383867 29252 92232 54834 198113 8943 14693 2140 515859 102 2822 1405577 373260 26866 267080 149077 1753
internal_value=-9.16073e-12 -0.00338903 0.000330881 -0.0104742 -0.00149312 0.00078595 -0.00644472 -0.00216402 -0.00355758 -0.00126483 -0.00348989 -0.00351437 -0.00846992 0.000371449 0.000676231 0.000322953 0.00196587 0.00247415 -0.0184701 -0.0113231 0.0102823 -0.00063734 -0.0200648 -0.0319884 0.000440393 -0.000905049 0.00199666 0.00212136 0.0012002 -0.00597557
internal_weight=4.38705e+06 390222 3.99683e+06 57523 798058 3.19877e+06 38248 332699 230768 779944 171567 31476 48342 2.36719e+06 1.91093e+06 1.52706e+06 831584 669104 19275 18114 4765 608377 6772 2924 1.49781e+06 456261 92518 614270 347190 26711
internal_count=4387053 390222 3996831 57523 798058 3198773 38248 332699 230768 779944 171567 31476 48342 2367189 1910928 1527061 831584 669104 19275 18114 4765 608377 6772 2924 1497809 456261 92518 614270 347190 26711
is_linear=0
shrinkage=0.07


Tree=20
num_leaves=31
num_cat=0
split_feature=115 62 121 71 95 106 104 69 73 70 63 46 71 126 47 101 71 114 10 32 121 39 123 63 86 66 84 29 43 84
split_gain=936.178 534.637 470.489 354.529 274.953 274.258 270.94 229.067 218.527 217.12 221.676 203.75 195.458 305.221 194.435 191.191 226.565 185.465 184.033 179.667 168.687 149.952 145.712 245.47 140.415 140.404 137.956 177.365 137.226 136.999
threshold=1.9145030379295351 2.8058522939682011 -0.13994597643613813 0.9790029525756837 -1.679219603538513 1.647850036621094 -1.8382755517959593 2.1332700252532963 -1.7626295089721677 0.21172799170017245 0.45300507545471197 -0.30254252254962916 -0.15258166193962094 -0.66055646538734425 -0.040871696546673768 -1.9996125698089597 1.1279593110084536 0.37917056679725653 -0.22474580258131024 -0.020453992299735543 -2.00323474407196 -0.045227909460663789 2.1048687696456914 2.7046037912368779 0.02056994661688805 -2.4995100498199458 -2.3223887681961055 -0.48165991902351374 2.1301116943359379 -0.65805092453956593
decision_type=2 2 2 2 2 2 2 2 2 2 2 2 2 2 2 2 2 2 2 2 2 2 2 2 2 2 2 2 2 2
left_child=2 3 9 4 -2 -5 11 12 -3 10 -1 -6 -4 17 21 16 22 -14 -9 20 -7 -11 -10 26 -8 -25 27 -24 -13 -28
right_child=1 8 7 5 6 19 24 18 15 14 -12 28 13 -15 -16 -17 -18 -19 -20 -21 -22 -23 23 25 -26 -27 29 -29 -30 -31
leaf_value=0.0011442666977159995 0.0064564695201117552 0.0028721377456168576 0.0003672347164010461 -0.0037174544055246562 -0.012148699478052749 0.030914339684621494 -0.0038696069408236458 -0.00073173320160056896 -0.02295999089050799 -0.00014699101979763458 0.0034662092436080964 0.00045456393452205903 -0.0016621963596265845 -0.00042511988433931457 0.0013056410348266569 -0.0074932027122990739 -0.045248184159797443 -0.0062424143475256818 -0.0076555528931387075 -0.019459942773120093 -0.0092371558766018592 -0.0034669104472071694 0.0052130112070905964 -0.098010773836978177 0.00087927113350538388 0.016205240461771214 -0.017122525177965656 0.19090698606588624 -0.011077331016948608 0.020628967074123809
leaf_weight=1081824 19813 3061 1096314 50733 20206 527 45435 37418 7840 189800 247578 18346 101253 846236 264571 6315 1826 75712 37826 10651 18911 102756 59 190 92870 73 963 44 6980 922
leaf_count=1081824 19813 3061 1096314 50733 20206 527 45435 37418 7840 189800 247578 18346 101253 846236 264571 6315 1826 75712 37826 10651 18911 102756 59 190 92870 73 963 44 6980 922
internal_value=-1.27047e-11 -0.0037359 0.000279889 -0.00293509 -0.00137831 -0.00685775 -0.0022227 -0.000416918 -0.0144347 0.00109054 0.00157669 -0.00690628 -0.000282176 -0.000977989 -6.94814e-05 -0.0173404 -0.0225585 -0.00362178 -0.00421241 -0.0121526 -0.00814857 -0.00131306 -0.0184528 -0.00275463 -0.000680797 -0.0663082 0.00565311 0.0845386 -0.0027237 0.00134266
internal_weight=4.38705e+06 305765 4.08129e+06 284472 203650 80822 183837 2.19476e+06 21293 1.88653e+06 1.3294e+06 45532 2.11952e+06 1.0232e+06 557127 18232 11917 176965 75244 30089 19438 292556 10091 2251 138305 263 1988 103 25326 1885
internal_count=4387053 305765 4081288 284472 203650 80822 183837 2194759 21293 1886529 1329402 45532 2119515 1023201 557127 18232 11917 176965 75244 30089 19438 292556 10091 2251 138305 263 1988 103 25326 1885
is_linear=0
shrinkage=0.07


Tree=21
num_leaves=31
num_cat=0
split_feature=14 121 62 63 70 78 98 83 87 105 73 62 71 83 40 120 121 64 31 94 48 95 126 10 74 103 47 94 73 46
split_gain=818.976 503.897 468.925 303.926 292.548 239.354 237.337 218.64 214.388 203.899 189.886 189.428 176.761 176.226 175.748 174.837 170.261 166.686 165.771 160.283 150.436 146.878 230.174 152.055 144.118 133.909 125.967 176.88 125.276 123.632
threshold=1.8736490011215212 -0.32772502303123469 2.8058522939682011 0.97498959302902233 2.4431934356689458 0.14043730497360232 -2.4379221200942989 -0.4629372358322143 0.90530431270599376 -0.75349411368370045 -0.5190584361553191 1.3535156250000002 0.010252806358039381 -0.26976498961448664 2.3179630041122441 -1.5341097712516782 -1.7413741946220396 -0.92678377032279957 2.1125669479370122 -2.8728070259094234 0.14559999108314517 0.16770944744348529 -0.42679123580455774 -1.2799160480499265 -1.2378477454185484 -1.1602159738540647 -0.10929542779922484 -0.73986455798149098 -1.7312715053558347 -0.089804537594318376
decision_type=2 2 2 2 2 2 2 2 2 2 2 2 2 2 2 2 2 2 2 2 2 2 2 2 2 2 2 2 2 2
left_child=1 7 4 13 5 9 14 26 10 17 -4 -5 -13 -3 -6 -9 -7 -2 -10 -12 -14 -15 25 -24 -17 29 27 -1 -19 -23
right_child=2 3 8 11 6 16 -8 15 18 -11 19 12 20 21 -16 24 -18 28 -20 -21 -22 22 23 -25 -26 -27 -28 -29 -30 -31
leaf_value=-0.0036570823352432952 -0.016639370202478035 -0.00095375779645954725 0.0023931452868399413 -0.0013841608426651134 -0.04276912146413691 0.0077386618267803855 -0.0082966424898204012 0.0054831330145247974 -0.021452945304444703 -0.002093059800579963 -0.02400524957548095 -0.0018346465429718265 -0.012616419293960452 0.0010104849983993136 0.032234887096866532 -0.0010667859399181264 -0.00086838750467010148 0.0052556293615362336 -0.056480835035922355 -0.005975059461831864 -0.0043128599318068301 -0.0072565823290447109 0.0052299742866503841 0.00029820084291389275 0.0021433297194464315 -0.0011025502291263287 0.0014207399061767225 0.00024298215492705508 -0.007956057035000675 -0.00074415250827906411
leaf_weight=67296 9661 745962 4197 252192 1538 12930 23976 68461 4285 58554 5081 38624 20889 805169 170 77616 87281 4154 783 4606 21899 37584 33156 402583 585331 241971 353376 371762 22926 23040
leaf_count=67296 9661 745962 4197 252192 1538 12930 23976 68461 4285 58554 5081 38624 20889 805169 170 77616 87281 4154 783 4606 21899 37584 33156 402583 585331 241971 353376 371762 22926 23040
internal_value=-9.84026e-12 0.000230154 -0.00397444 -0.000357974 -0.00306899 -0.00214628 -0.0100926 0.00124253 -0.0145419 -0.00465794 -0.0100438 -0.00233189 -0.00526769 -7.03492e-05 -0.0353039 0.00211529 0.000242161 -0.00874559 -0.0268647 -0.0154322 -0.00836664 0.000356595 -0.000356487 0.000673466 0.0017675 -0.00183963 0.000436983 -0.000354795 -0.00592942 -0.00478155
internal_weight=4.38705e+06 4.14691e+06 240142 2.62307e+06 221190 195506 25684 1.52384e+06 18952 95295 13884 333604 81412 2.28946e+06 1708 731408 100211 36741 5068 9687 42788 1.5435e+06 738334 435739 662947 302595 792434 439058 27080 60624
internal_count=4387053 4146911 240142 2623069 221190 195506 25684 1523842 18952 95295 13884 333604 81412 2289465 1708 731408 100211 36741 5068 9687 42788 1543503 738334 435739 662947 302595 792434 439058 27080 60624
is_linear=0
shrinkage=0.07


Tree=22
num_leaves=31
num_cat=0
split_feature=65 115 121 70 78 70 95 96 43 21 53 121 19 83 87 127 96 56 120 31 14 47 117 78 95 26 63 17 25 107
split_gain=746.661 531.1 370.087 305.77 278.108 271.946 233.639 219.455 203.577 221.887 198.629 196.93 204.392 179.23 178.49 172.148 169.199 149.613 151.976 146.057 141.356 131.132 133.474 130.153 127.557 150.793 146.041 124.957 123.333 122.593
threshold=0.9536566734313966 2.1420105695724492 -0.58935949206352223 2.4982070922851567 -0.19707661867141721 1.4426742792129519 -1.6536017060279844 1.6263045072555544 1.4680124521255495 -1.0149090886116026 1.2200297117233279 1.4216364622116091 -0.14666444808244702 -0.22671794146299359 1.7505350708961489 -0.05855161510407924 1.4789747595787051 -1.1112105846405027 -0.94018214941024769 2.2477015256881718 2.5299005508422856 -0.070462238043546663 0.94544324278831493 -0.26476427912712092 0.30601084232330328 1.7024123668670657 0.42146033048629766 -0.48211939632892603 1.9286029338836672 2.6546164751052861
decision_type=2 2 2 2 2 2 2 2 2 2 2 2 2 2 2 2 2 2 2 2 2 2 2 2 2 2 2 2 2 2
left_child=2 5 15 4 7 21 28 -3 -8 -10 14 13 -13 -4 23 -1 -5 -15 -19 -18 -11 22 -2 -7 25 26 -17 -22 -6 -12
right_child=1 3 11 16 6 10 8 -9 9 20 29 12 -14 17 -16 24 19 18 -20 -21 27 -23 -24 -25 -26 -27 -28 -29 -30 -31
leaf_value=0.0006533675555619753 -0.00013530305950706364 -0.0073864252638433598 -0.0005588452843150474 -0.011688086536186625 0.015001193767727721 -0.0079514938116638338 -0.00086651645676282527 -0.020917424123813332 0.0016768511549279817 -0.0099049576583005866 0.00075785935036807466 -0.0032167558135766127 0.00042583995558645167 0.0025534889762567959 -0.016251235414510377 0.002209869115312511 -0.024755926211944133 0.0030094666876328675 0.00018430947722128746 -0.068727603374262827 -0.018269103193350022 0.0013377961091365653 -0.0041940071528246562 -0.002689648322044495 0.00018096039060557531 -0.0022699467893623495 0.005101066874961712 -0.053360456777567067 -0.010916526306164789 0.018439255773899592
leaf_weight=492258 130150 38767 985114 8329 5108 32476 47522 6922 7947 18599 18075 180627 129667 179262 6387 195061 2780 100977 1227317 427 1920 163927 57130 79229 90700 23895 152567 671 1092 2150
leaf_count=492258 130150 38767 985114 8329 5108 32476 47522 6922 7947 18599 18075 180627 129667 179262 6387 195061 2780 100977 1227317 427 1920 163927 57130 79229 90700 23895 152567 671 1092 2150
internal_value=-9.73194e-12 -0.00223092 0.00037382 -0.00603145 -0.00505174 -0.00114335 -0.00263401 -0.00943641 -0.00369111 -0.00829797 -0.00377238 -3.15756e-05 -0.00169457 0.000175439 -0.00487016 0.00156432 -0.0169485 0.000655257 0.000399078 -0.0306106 -0.0120389 -0.000107949 -0.00137342 -0.00421942 0.00253446 0.00310902 0.00347876 -0.0273568 0.0104363 0.00263746
internal_weight=4.38705e+06 629608 3.75744e+06 140084 128548 489524 82859 45689 76659 29137 138317 2.80296e+06 310294 2.49267e+06 118092 954481 11536 1.50756e+06 1.32829e+06 3207 21190 351207 187280 111705 462223 371523 347628 2591 6200 20225
internal_count=4387053 629608 3757445 140084 128548 489524 82859 45689 76659 29137 138317 2802964 310294 2492670 118092 954481 11536 1507556 1328294 3207 21190 351207 187280 111705 462223 371523 347628 2591 6200 20225
is_linear=0
shrinkage=0.07


Tree=23
num_leaves=31
num_cat=0
split_feature=62 121 70 21 75 106 94 77 120 53 73 19 95 87 63 92 61 122 46 83 63 31 98 40 6 63 39 29 82 97
split_gain=704.292 549.807 360.862 353.46 341.565 308.874 263.517 251.61 353.39 241.265 240.212 225.28 204.835 204.765 184.495 180.896 172.703 170.548 166.454 157.966 153.649 150.471 236.277 146.96 141.066 139.6 137.276 131.178 128.873 128.82
threshold=2.8058522939682011 1.4216364622116091 0.76020753383636486 -0.86658895015716542 1.5109615325927737 -0.60369825363159169 -1.4384641051292417 -1.4275812506675718 -0.89444375038146962 1.2200297117233279 -1.7626295089721677 -1.0965935587882993 0.89132502675056469 1.6518833637237551 2.168048739433289 0.0085987183265388029 1.850708603858948 0.47298406064510351 -0.35476857423782343 1.1642936468124392 2.4018727540969853 2.373906254768372 -1.7900776863098142 -1.4262193441390989 -0.060596410185098641 2.7046037912368779 -0.6033041477203368 -0.59198585152626026 0.38782761991024023 -1.3374195098876951
decision_type=2 2 2 2 2 2 2 2 2 2 2 2 2 2 2 2 2 2 2 2 2 2 2 2 2 2 2 2 2 2
left_child=1 2 5 9 12 -1 18 -7 17 21 -2 24 -5 -6 -12 -16 -15 -9 -3 -8 -14 -4 -23 -13 29 -17 -21 -19 -25 -10
right_child=10 6 3 4 13 7 19 8 11 -11 14 23 20 16 15 25 -18 27 -20 26 -22 22 -24 28 -26 -27 -28 -29 -30 -31
leaf_value=-0.00029378347436594994 0.0039833526401773971 -0.012596572880761376 0.00075634324462723777 -0.00069427852069426526 -0.0057570283898958968 -0.0013500965408826764 -0.003161120478448483 0.0020636960826681595 -0.0057305642538962587 0.0068936706540496887 -0.0068700120683928938 0.0040918611772014198 -0.0035624325823288235 -0.01304084840666507 -0.0052618827949421632 -0.018580690133585463 -0.040084722481937882 0.0078582590198616829 -0.0042555261532024654 0.0026431925422529361 -0.013558186598887714 -0.037491290492535731 -0.0028776018213366827 0.0005033582236561989 0.0008252241511995989 -0.04274296940236029 -0.0014844998708509144 0.0035680903712991948 0.0020032221804584601 -0.0011365254461630661
leaf_weight=1135380 6728 17055 114375 328010 44383 183295 173721 267303 40987 34209 27741 83898 77651 5743 4765 8827 1449 51614 37500 56776 8345 1283 3915 754208 121181 1351 129596 107992 447123 110649
leaf_count=1135380 6728 17055 114375 328010 44383 183295 173721 267303 40987 34209 27741 83898 77651 5743 4765 8827 1449 51614 37500 56776 8345 1283 3915 754208 121181 1351 129596 107992 447123 110649
internal_value=-7.5609e-12 9.46624e-05 0.000350879 -0.00119966 -0.00216072 0.000641574 -0.00232941 0.00113136 0.00136051 0.00170999 -0.00830995 0.000871598 -0.00149152 -0.00753254 -0.0102477 -0.0165181 -0.0184895 0.00314482 -0.00686311 -0.00164254 -0.00453241 0.000226971 -0.0114211 0.0012594 -0.000955338 -0.0217879 -0.000227048 0.00495546 0.00106159 -0.00237829
internal_weight=4.38705e+06 4.33764e+06 3.92299e+06 619363 465581 3.30363e+06 414648 2.16825e+06 1.98496e+06 153782 49412 1.55805e+06 414006 51575 42684 14943 7192 426909 54555 360093 85996 119573 5198 1.28523e+06 272817 10178 186372 159606 1.20133e+06 151636
internal_count=4387053 4337641 3922993 619363 465581 3303630 414648 2168250 1984955 153782 49412 1558046 414006 51575 42684 14943 7192 426909 54555 360093 85996 119573 5198 1285229 272817 10178 186372 159606 1201331 151636
is_linear=0
shrinkage=0.07


Tree=24
num_leaves=31
num_cat=0
split_feature=104 95 121 86 61 76 67 121 65 70 78 48 59 62 64 47 87 48 101 49 83 48 85 106 70 43 43 77 24 70
split_gain=623.05 565.343 435.07 327.328 322.404 249.851 237.187 235.471 231.468 197.451 183.226 173.138 171.089 165.622 164.906 161.747 161.238 150.392 190.236 172.708 149.872 144.135 129.98 127.138 127.014 120.368 117.457 124.378 116.042 109.713
threshold=-2.3533409833908077 0.63689136505126964 0.36531984806060797 -1.1056394577026365 1.781481981277466 -1.598319888114929 1.9964289069175722 -1.8472000360488889 0.9536566734313966 2.228589773178101 -1.2236469984054563 -0.27876184880733484 2.3099581003189091 2.4494342803955083 0.74590671062469494 -0.23672164976596829 1.6518833637237551 0.1874555051326752 -0.12966288626193997 0.98713731765747081 0.59163418412208568 0.34032714366912847 -0.31885257363319391 2.3017715215682988 -0.51135188341140736 1.5406420230865481 2.1301116943359379 1.5787566900253298 1.3318774700164797 2.228589773178101
decision_type=2 2 2 2 2 2 2 2 2 2 2 2 2 2 2 2 2 2 2 2 2 2 2 2 2 2 2 2 2 2
left_child=1 3 7 -1 11 16 12 21 20 26 13 -3 22 -9 15 -7 -5 19 -19 -12 -4 25 -6 -11 28 -2 27 -10 -14 -15
right_child=2 4 8 5 6 14 -8 10 9 23 17 -13 24 29 -16 -17 -18 18 -20 -21 -22 -23 -24 -25 -26 -27 -28 -29 -30 -31
leaf_value=-0.0089642016570957959 0.0038791897404470595 -0.0085370891998697001 -0.0012570029402121077 -0.0067478295567136807 -0.042566086879090505 -0.0030676753453157783 -0.028013372626318766 -0.00068349349785562378 -0.0024798381608346987 -0.005556210656526118 0.00064645611724656511 -0.00069228534190495135 0.0071146497045842657 -0.0072199708600780227 0.0051024368618733133 0.0031768480670049085 -0.032168320174465283 0.0038735897669008304 0.0010726258632973214 -0.0019293595548489529 0.00032568834316830077 0.0093573176506124116 -0.015308934320542748 -0.015818454804398599 -0.0088809386626990013 -0.0037762520997371716 -0.008538406535289228 0.0026864762920450181 0.14569848966101806 -0.029403033623439798
leaf_weight=21115 65864 28179 573799 6877 932 49132 4713 354499 124364 23864 1419753 26989 2257 5131 37461 34666 1487 147408 612558 140140 599456 20116 10690 7865 13773 11879 12699 27969 30 1388
leaf_count=21115 65864 28179 573799 6877 932 49132 4713 354499 124364 23864 1419753 26989 2257 5131 37461 34666 1487 147408 612558 140140 599456 20116 10690 7865 13773 11879 12699 27969 30 1388
internal_value=-5.73374e-12 -0.00348072 0.00019993 -0.000882115 -0.00795416 0.00043442 -0.0134971 0.000703265 -0.000820962 -0.00304277 0.000580152 -0.0046993 -0.0110257 -0.000886811 0.00124156 -0.000484408 -0.0112672 0.000808442 0.00161592 0.000415046 -0.000448352 0.00407599 -0.0174948 -0.00810002 -0.00634424 0.00270945 -0.00207047 -0.00153128 0.00893254 -0.0119431
internal_weight=4.38705e+06 238301 4.14875e+06 150738 87563 129623 32395 2.77874e+06 1.37002e+06 196761 2.68088e+06 55168 27682 361018 121259 83798 8364 2.31986e+06 759966 1.55989e+06 1.17326e+06 97859 11622 31729 16060 77743 165032 152333 2287 6519
internal_count=4387053 238301 4148752 150738 87563 129623 32395 2778736 1370016 196761 2680877 55168 27682 361018 121259 83798 8364 2319859 759966 1559893 1173255 97859 11622 31729 16060 77743 165032 152333 2287 6519
is_linear=0
shrinkage=0.07


Tree=25
num_leaves=31
num_cat=0
split_feature=62 121 14 47 69 121 73 39 97 82 84 84 116 115 67 31 43 76 107 109 96 106 49 86 83 102 36 36 71 123
split_gain=578.503 448.854 287.343 268.469 329.564 219.794 203.638 193.027 188.003 179.906 176.806 171.313 184.236 169.816 164.809 184.326 164.255 156.408 149.914 146.333 142.785 140.05 137.051 136.432 135.434 131.656 124.295 120.387 119.287 118.587
threshold=2.8058522939682011 0.73007741570472728 1.0992438793182375 -0.10929542779922484 1.3051220774650576 -1.6489304304122923 -1.7626295089721677 1.4084515571594241 -2.1834899187088008 0.38782761991024023 -1.163084030151367 -2.3223887681961055 2.3594380617141728 2.1420105695724492 1.8273556232452395 2.2477015256881718 -0.52632737159728993 -1.543275713920593 2.2248555421829228 2.7313375473022465 1.0339809060096743 -0.65101972222328175 1.4348454475402834 1.1125597953796389 1.269883453845978 -2.8707937002182002 -1.6022765040397642 -1.0063343644142149 -0.75923016667366017 1.0029712915420534
decision_type=2 2 2 2 2 2 2 2 2 2 2 2 2 2 2 2 2 2 2 2 2 2 2 2 2 2 2 2 2 2
left_child=1 3 24 4 8 18 29 23 -1 -10 11 12 19 -13 -12 27 -6 26 -5 -8 -9 -7 -23 -4 28 -15 -18 -16 -3 -2
right_child=6 2 7 5 16 21 10 20 9 -11 14 13 -14 25 15 -17 17 -19 -20 -21 -22 22 -24 -25 -26 -27 -28 -29 -30 -31
leaf_value=-0.0032144420422147708 -0.011531491369701481 0.00042342310022235556 -0.0045827631101753906 0.0030155707546030571 -3.1864164688374773e-05 -8.120584733729063e-05 0.019454496049064924 -0.0053064557319022982 -0.00019883002733960713 0.0013788739510995922 -0.0029829417413213695 -0.010559809443759335 0.15405727889712739 -0.053998288588316214 -0.027703343123034564 -0.040714282593775346 -0.029858300567664038 -0.0036268988066252813 0.010029217150702333 -0.10013469678366728 -0.014865755337561499 0.001761524964233664 -0.00035549036817152406 0.00045108058426167487 0.00056725679424692455 -0.022418374065914359 -0.0090990580470154941 -0.0049753147191595321 -0.0020023884603754282 0.0094253473976155851
leaf_weight=76764 1810 132944 72690 86157 53815 477656 567 20676 1051357 534050 21091 7619 46 741 1497 1161 1563 88168 18064 55 12159 820521 183317 41413 258745 5092 14754 4815 392828 4918
leaf_count=76764 1810 132944 72690 86157 53815 477656 567 20676 1051357 534050 21091 7619 46 741 1497 1161 1563 88168 18064 55 12159 820521 183317 41413 258745 5092 14754 4815 392828 4918
internal_value=-7.05521e-12 8.57934e-05 -0.00127589 0.00045816 -0.000121844 0.00112403 -0.00753139 -0.00411677 0.000168811 0.000332625 -0.0093155 -0.0157233 0.0188771 -0.0174414 -0.00614797 -0.0150806 -0.00317377 -0.004792 0.0042312 0.00887989 -0.00884632 0.000905446 0.00137492 -0.00275576 -0.000743805 -0.0264302 -0.0110876 -0.0103657 -0.00138901 0.00378743
internal_weight=4.38705e+06 4.33764e+06 931455 3.40619e+06 1.82047e+06 1.58572e+06 49412 146938 1.66217e+06 1.58541e+06 42684 14120 668 13452 28564 7473 158300 104485 104221 622 32835 1.48149e+06 1.00384e+06 114103 784517 5833 16317 6312 525772 6728
internal_count=4387053 4337641 931455 3406186 1820471 1585715 49412 146938 1662171 1585407 42684 14120 668 13452 28564 7473 158300 104485 104221 622 32835 1481494 1003838 114103 784517 5833 16317 6312 525772 6728
is_linear=0
shrinkage=0.07


Tree=26
num_leaves=31
num_cat=0
split_feature=70 115 120 77 126 10 32 106 106 102 76 64 63 84 51 120 53 95 117 87 120 62 17 119 77 46 31 49 55 101
split_gain=524.413 464.562 284.338 346.793 324.577 275.755 263.928 263.751 234.389 222.991 217.271 182.186 181.613 176.607 163.993 154.925 149.983 146.799 183.334 136.202 135.375 132.028 192.256 131.825 123.519 119.292 115.148 116.284 114.552 129.238
threshold=0.40241777896881109 2.1420105695724492 0.044762887060642249 -1.0425304174423216 -0.97774326801300038 -1.0735872983932493 -0.31301701068878168 1.8239525556564333 -0.50664073228836048 -2.7955147027969356 -1.5233107805252073 -0.5997699201107024 2.6574966907501225 1.9362085461616518 -1.0980540513992307 -1.754719018936157 0.91949000954628002 0.30601084232330328 -0.46140077710151667 1.2236906886100771 -2.0170607566833492 1.3040476441383364 -0.16838940978050229 0.15172345936298373 -0.95627486705780018 0.13169603049755099 2.2477015256881718 2.1821942329406743 1.9458813667297366 -2.9142799377441402
decision_type=2 2 2 2 2 2 2 2 2 2 2 2 2 2 2 2 2 2 2 2 2 2 2 2 2 2 2 2 2 2
left_child=2 5 3 -1 9 16 13 -8 -5 -4 21 26 15 19 -6 -10 -2 24 -19 -3 -14 -7 -23 -16 -12 -20 -9 -28 -15 -30
right_child=1 6 4 8 14 10 7 11 12 -11 17 -13 20 28 23 -17 -18 18 25 -21 -22 22 -24 -25 -26 -27 27 -29 29 -31
leaf_value=-0.00052534276084616172 0.00052733778443926724 -0.0027379727957193168 -0.011759913367075174 0.00049489291812453682 0.0025361656814872971 -0.0025938862068171217 -0.0037974602452590296 -0.01730157166976648 0.0058992743377098414 -0.001960638145023032 -0.0021828775627737787 -0.0081921094759358545 -0.075476595544168107 0.00038114068804408902 -0.0015226345932679594 0.002157931781669559 0.0053592092013271678 -3.2220707018385291e-05 -0.0052862819628824364 -0.015374541714115874 -0.011041068346367032 -0.0049095808905046338 -0.017219152735465031 0.00038751712286864656 0.0005002165885605724 -0.001550940248616448 -0.03170491573130086 -0.097416013070297514 0.042022203270887105 0.0095737237423249213
leaf_weight=521424 112331 50205 11845 555334 134631 56729 26384 13291 58542 289087 111234 15797 169 5111 232927 736787 43733 115950 95179 4559 2924 22922 8531 737770 344312 74830 922 154 777 2662
leaf_count=521424 112331 50205 11845 555334 134631 56729 26384 13291 58542 289087 111234 15797 169 5111 232927 736787 43733 115950 95179 4559 2924 22922 8531 737770 344312 74830 922 154 777 2662
internal_value=-5.44485e-12 -0.0013185 0.00044424 0.00100852 -0.0003082 -0.000818145 -0.00543342 -0.00890911 0.00159932 -0.00234635 -0.00132592 -0.0133802 0.00236748 -0.00232915 0.000246698 0.00243332 0.00188135 -0.000935281 -0.00217841 -0.00378994 -0.0145618 -0.00461072 -0.00824831 -7.084e-05 -0.000154934 -0.00364216 -0.0190847 -0.0411097 0.00702743 0.0169051
internal_weight=4.38705e+06 1.10561e+06 3.28144e+06 1.87518e+06 1.40626e+06 985751 119862 56548 1.35376e+06 300932 829687 30164 798422 63314 1.10533e+06 795329 156064 741505 285959 54764 3093 88182 31453 970697 455546 170009 14367 1076 8550 3439
internal_count=4387053 1105613 3281440 1875180 1406260 985751 119862 56548 1353756 300932 829687 30164 798422 63314 1105328 795329 156064 741505 285959 54764 3093 88182 31453 970697 455546 170009 14367 1076 8550 3439
is_linear=0
shrinkage=0.07


Tree=27
num_leaves=31
num_cat=0
split_feature=84 63 121 78 71 62 73 48 39 61 69 115 104 72 83 73 62 121 72 83 75 37 28 19 97 73 127 46 39 19
split_gain=475.469 391.178 336.106 236.107 231.568 371.635 186.793 183.651 205.361 170.554 169.756 163.586 159.268 157.035 147.281 163.747 146.206 158.768 127.563 138.794 122.525 193.645 121.361 120.905 119.23 118.954 113.693 109.166 103.574 101.827
threshold=-1.4235880970954893 2.441415667533875 -0.16580405086278913 -0.95809066295623768 0.46063351631164556 0.81227564811706554 -1.7626295089721677 0.39680700004100805 0.10701755806803705 2.7073223590850835 2.3073865175247197 2.4033051729202275 -1.2572847008705137 2.0039263963699345 0.94500529766082775 0.33555877208709722 2.8763018846511845 -1.8472000360488889 -0.7308354079723357 -0.019149743020534512 1.4669814109802248 -1.3991200923919676 0.042052257806062705 -1.0008834004402158 -2.9219546318054195 -2.0452513694763179 1.5813265442848208 -0.33650480210781092 2.5919921398162846 0.22061587125062945
decision_type=2 2 2 2 2 2 2 2 2 2 2 2 2 2 2 2 2 2 2 2 2 2 2 2 2 2 2 2 2 2
left_child=1 3 16 12 14 29 9 8 -7 -3 11 27 -1 25 15 22 17 20 -19 -20 -2 -22 -4 -17 -13 26 -5 -8 -9 -6
right_child=2 6 4 13 5 7 10 28 -10 -11 -12 24 -14 -15 -16 23 -18 18 19 -21 21 -23 -24 -25 -26 -27 -28 -29 -30 -31
leaf_value=-0.010530443077908389 0.0044434049268229419 0.0052873075816599379 0.0010154491841723411 0.001783213955869823 -0.0019561229824972145 -0.004108112634201651 -0.014585258442071357 -0.00067493909828852516 -0.013009653219987786 -0.067953044840985022 -0.029693833487647033 -0.088904271745738006 -0.003212022739314284 -0.0083081707375862752 0.0013068673023240763 -0.0039147188960912647 -0.010264070112554837 -0.00024209338399143858 0.00068182878672749228 0.002278896639193821 -0.040319908642335187 -0.0013198689466372622 -0.00064449129219083248 -0.0008208821045929749 -0.02521774122783468 -0.00052325165132399633 0.025188631771446993 -0.0049875569427990686 -0.010365857765655991 -3.5691471631596307e-05
leaf_weight=19804 89098 4820 462927 2490 219153 26523 9458 35983 24366 161 2374 159 55144 12682 386061 82189 5679 411960 856251 387216 696 6017 404314 250644 1531 252698 1719 15043 6359 353534
leaf_count=19804 89098 4820 462927 2490 219153 26523 9458 35983 24366 161 2374 159 55144 12682 386061 82189 5679 411960 856251 387216 696 6017 404314 250644 1531 252698 1719 15043 6359 353534
internal_value=-5.47322e-12 -0.00237299 0.000223795 -0.00167041 -0.000342322 -0.00143781 -0.00958887 -0.00553631 -0.00837023 0.00291997 -0.0117701 -0.0101454 -0.00514582 -0.000704218 0.000117604 -0.000264979 0.000949455 0.000985819 0.000825472 0.00117916 0.00375629 -0.00536337 0.000241573 -0.00158487 -0.0312096 -0.000328855 0.0113422 -0.00869251 -0.00213034 -0.000770593
internal_weight=4.38705e+06 378083 4.00897e+06 344537 2.25205e+06 665918 33546 93231 50889 4981 28565 26191 74948 269589 1.58614e+06 1.20007e+06 1.75692e+06 1.75124e+06 1.65543e+06 1.24347e+06 95811 6713 867241 332833 1690 256907 4209 24501 42342 572687
internal_count=4387053 378083 4008970 344537 2252053 665918 33546 93231 50889 4981 28565 26191 74948 269589 1586135 1200074 1756917 1751238 1655427 1243467 95811 6713 867241 332833 1690 256907 4209 24501 42342 572687
is_linear=0
shrinkage=0.07


Tree=28
num_leaves=31
num_cat=0
split_feature=70 121 87 117 86 120 100 123 19 82 32 94 7 62 99 31 47 105 104 63 115 26 86 73 95 119 55 61 6 77
split_gain=453.095 341.939 323.347 288.866 250.621 321.798 240.026 230.739 222.361 210.923 190.252 177.879 177.048 233.865 171.655 156.154 148.453 160.421 145.265 136.039 158.379 122.821 117.223 145.515 113.396 111.36 110.323 121.25 105.752 96.8513
threshold=2.3838181495666508 1.6096196770668032 1.2944648861885073 0.92976880073547374 -1.7557376027107237 -0.95745575428009022 0.41332721710205084 1.0029712915420534 -1.4296700358390806 0.84389311075210582 -0.49279829859733576 -2.9671081304550166 -0.021219307556748387 0.24204886704683307 1.8257669210433962 0.85884010791778576 -0.24577970802783963 -1.9372426271438596 -0.5065283179283141 2.7046037912368779 2.4033051729202275 1.6759771704673769 -1.1545827984809873 -1.8005982041358946 2.1869844198226933 -1.7987849116325376 0.60355496406555187 2.3566403388977055 -0.62966179847717274 0.62987357378005993
decision_type=2 2 2 2 2 2 2 2 2 2 2 2 2 2 2 2 2 2 2 2 2 2 2 2 2 2 2 2 2 2
left_child=1 4 10 14 18 7 8 21 -4 12 26 25 13 -7 29 -10 17 28 -1 22 -21 -6 -9 -24 -12 -5 27 -2 -15 -3
